digraph Tree {
node [shape=box, fontname="helvetica"] ;
edge [fontname="helvetica"] ;
0 [label="GenHlth <= 2.0\nentropy = 1.585\nsamples = 512583\nvalue = [170861, 170861, 170861]\nclass = y[0]"] ;
1 [label="HighBP <= 0.0\nentropy = 1.361\nsamples = 167351\nvalue = [100280, 40054, 27017]\nclass = y[0]"] ;
0 -> 1 [labeldistance=2.5, labelangle=45, headlabel="True"] ;
2 [label="Age <= 8.0\nentropy = 0.952\nsamples = 92110\nvalue = [72195.0, 13205.0, 6710.0]\nclass = y[0]"] ;
1 -> 2 ;
3 [label="HighChol <= 0.0\nentropy = 0.672\nsamples = 55545\nvalue = [48464, 4402, 2679]\nclass = y[0]"] ;
2 -> 3 ;
4 [label="GenHlth <= 1.001\nentropy = 0.497\nsamples = 42670\nvalue = [39086.0, 2189.0, 1395.0]\nclass = y[0]"] ;
3 -> 4 ;
5 [label="Sex <= 0.002\nentropy = 0.188\nsamples = 16668\nvalue = [16258, 290, 120]\nclass = y[0]"] ;
4 -> 5 ;
6 [label="Veggies <= 0.998\nentropy = 0.098\nsamples = 9802\nvalue = [9694, 69, 39]\nclass = y[0]"] ;
5 -> 6 ;
7 [label="BMI <= 23.868\nentropy = 0.326\nsamples = 984\nvalue = [935, 37, 12]\nclass = y[0]"] ;
6 -> 7 ;
8 [label="Veggies <= 0.0\nentropy = 0.417\nsamples = 450\nvalue = [414, 35, 1]\nclass = y[0]"] ;
7 -> 8 ;
9 [label="Education <= 4.5\nentropy = 0.068\nsamples = 417\nvalue = [414.0, 2.0, 1.0]\nclass = y[0]"] ;
8 -> 9 ;
10 [label="entropy = 0.253\nsamples = 85\nvalue = [82, 2, 1]\nclass = y[0]"] ;
9 -> 10 ;
11 [label="entropy = 0.0\nsamples = 332\nvalue = [332, 0, 0]\nclass = y[0]"] ;
9 -> 11 ;
12 [label="entropy = 0.0\nsamples = 33\nvalue = [0, 33, 0]\nclass = y[1]"] ;
8 -> 12 ;
13 [label="Veggies <= 0.03\nentropy = 0.18\nsamples = 534\nvalue = [521.0, 2.0, 11.0]\nclass = y[0]"] ;
7 -> 13 ;
14 [label="BMI <= 29.5\nentropy = 0.137\nsamples = 530\nvalue = [521, 2, 7]\nclass = y[0]"] ;
13 -> 14 ;
15 [label="entropy = 0.048\nsamples = 378\nvalue = [376, 0, 2]\nclass = y[0]"] ;
14 -> 15 ;
16 [label="entropy = 0.309\nsamples = 152\nvalue = [145, 2, 5]\nclass = y[0]"] ;
14 -> 16 ;
17 [label="entropy = 0.0\nsamples = 4\nvalue = [0, 0, 4]\nclass = y[2]"] ;
13 -> 17 ;
18 [label="Age <= 6.5\nentropy = 0.065\nsamples = 8818\nvalue = [8759, 32, 27]\nclass = y[0]"] ;
6 -> 18 ;
19 [label="Age <= 3.5\nentropy = 0.043\nsamples = 5657\nvalue = [5633.0, 6.0, 18.0]\nclass = y[0]"] ;
18 -> 19 ;
20 [label="BMI <= 35.5\nentropy = 0.023\nsamples = 1905\nvalue = [1901, 3, 1]\nclass = y[0]"] ;
19 -> 20 ;
21 [label="entropy = 0.013\nsamples = 1845\nvalue = [1843, 1, 1]\nclass = y[0]"] ;
20 -> 21 ;
22 [label="entropy = 0.211\nsamples = 60\nvalue = [58, 2, 0]\nclass = y[0]"] ;
20 -> 22 ;
23 [label="Smoker <= 0.026\nentropy = 0.051\nsamples = 3752\nvalue = [3732, 3, 17]\nclass = y[0]"] ;
19 -> 23 ;
24 [label="entropy = 0.037\nsamples = 2866\nvalue = [2856, 3, 7]\nclass = y[0]"] ;
23 -> 24 ;
25 [label="entropy = 0.089\nsamples = 886\nvalue = [876, 0, 10]\nclass = y[0]"] ;
23 -> 25 ;
26 [label="Fruits <= 0.5\nentropy = 0.097\nsamples = 3161\nvalue = [3126, 26, 9]\nclass = y[0]"] ;
18 -> 26 ;
27 [label="MentHlth <= 0.015\nentropy = 0.242\nsamples = 683\nvalue = [659, 20, 4]\nclass = y[0]"] ;
26 -> 27 ;
28 [label="entropy = 0.069\nsamples = 539\nvalue = [535, 3, 1]\nclass = y[0]"] ;
27 -> 28 ;
29 [label="entropy = 0.666\nsamples = 144\nvalue = [124, 17, 3]\nclass = y[0]"] ;
27 -> 29 ;
30 [label="Education <= 3.5\nentropy = 0.045\nsamples = 2478\nvalue = [2467.0, 6.0, 5.0]\nclass = y[0]"] ;
26 -> 30 ;
31 [label="entropy = 0.64\nsamples = 17\nvalue = [15, 1, 1]\nclass = y[0]"] ;
30 -> 31 ;
32 [label="entropy = 0.038\nsamples = 2461\nvalue = [2452, 5, 4]\nclass = y[0]"] ;
30 -> 32 ;
33 [label="Age <= 3.192\nentropy = 0.297\nsamples = 6866\nvalue = [6564, 221, 81]\nclass = y[0]"] ;
5 -> 33 ;
34 [label="Smoker <= 0.5\nentropy = 0.032\nsamples = 2111\nvalue = [2104, 0, 7]\nclass = y[0]"] ;
33 -> 34 ;
35 [label="Fruits <= 0.243\nentropy = 0.042\nsamples = 1549\nvalue = [1542.0, 0.0, 7.0]\nclass = y[0]"] ;
34 -> 35 ;
36 [label="entropy = 0.0\nsamples = 559\nvalue = [559, 0, 0]\nclass = y[0]"] ;
35 -> 36 ;
37 [label="BMI <= 22.5\nentropy = 0.061\nsamples = 990\nvalue = [983, 0, 7]\nclass = y[0]"] ;
35 -> 37 ;
38 [label="entropy = 0.0\nsamples = 220\nvalue = [220, 0, 0]\nclass = y[0]"] ;
37 -> 38 ;
39 [label="entropy = 0.075\nsamples = 770\nvalue = [763, 0, 7]\nclass = y[0]"] ;
37 -> 39 ;
40 [label="entropy = 0.0\nsamples = 562\nvalue = [562, 0, 0]\nclass = y[0]"] ;
34 -> 40 ;
41 [label="Sex <= 0.986\nentropy = 0.386\nsamples = 4755\nvalue = [4460, 221, 74]\nclass = y[0]"] ;
33 -> 41 ;
42 [label="Fruits <= 0.893\nentropy = 0.286\nsamples = 140\nvalue = [0, 133, 7]\nclass = y[1]"] ;
41 -> 42 ;
43 [label="PhysActivity <= 0.937\nentropy = 0.779\nsamples = 26\nvalue = [0, 20, 6]\nclass = y[1]"] ;
42 -> 43 ;
44 [label="entropy = 0.0\nsamples = 4\nvalue = [0, 0, 4]\nclass = y[2]"] ;
43 -> 44 ;
45 [label="entropy = 0.439\nsamples = 22\nvalue = [0, 20, 2]\nclass = y[1]"] ;
43 -> 45 ;
46 [label="BMI <= 22.507\nentropy = 0.073\nsamples = 114\nvalue = [0, 113, 1]\nclass = y[1]"] ;
42 -> 46 ;
47 [label="entropy = 0.0\nsamples = 1\nvalue = [0, 0, 1]\nclass = y[2]"] ;
46 -> 47 ;
48 [label="entropy = 0.0\nsamples = 113\nvalue = [0, 113, 0]\nclass = y[1]"] ;
46 -> 48 ;
49 [label="NoDocbcCost <= 0.007\nentropy = 0.245\nsamples = 4615\nvalue = [4460, 88, 67]\nclass = y[0]"] ;
41 -> 49 ;
50 [label="Fruits <= 0.02\nentropy = 0.219\nsamples = 4440\nvalue = [4311, 63, 66]\nclass = y[0]"] ;
49 -> 50 ;
51 [label="entropy = 0.117\nsamples = 1485\nvalue = [1464, 4, 17]\nclass = y[0]"] ;
50 -> 51 ;
52 [label="entropy = 0.263\nsamples = 2955\nvalue = [2847.0, 59.0, 49.0]\nclass = y[0]"] ;
50 -> 52 ;
53 [label="NoDocbcCost <= 0.979\nentropy = 0.641\nsamples = 175\nvalue = [149, 25, 1]\nclass = y[0]"] ;
49 -> 53 ;
54 [label="entropy = 0.0\nsamples = 23\nvalue = [0, 23, 0]\nclass = y[1]"] ;
53 -> 54 ;
55 [label="entropy = 0.158\nsamples = 152\nvalue = [149, 2, 1]\nclass = y[0]"] ;
53 -> 55 ;
56 [label="Income <= 7.999\nentropy = 0.654\nsamples = 26002\nvalue = [22828, 1899, 1275]\nclass = y[0]"] ;
4 -> 56 ;
57 [label="Education <= 4.001\nentropy = 0.787\nsamples = 13259\nvalue = [11123, 1397, 739]\nclass = y[0]"] ;
56 -> 57 ;
58 [label="BMI <= 25.189\nentropy = 0.391\nsamples = 3320\nvalue = [3116, 73, 131]\nclass = y[0]"] ;
57 -> 58 ;
59 [label="Fruits <= 0.5\nentropy = 0.108\nsamples = 1213\nvalue = [1197, 2, 14]\nclass = y[0]"] ;
58 -> 59 ;
60 [label="Income <= 4.5\nentropy = 0.116\nsamples = 512\nvalue = [505, 2, 5]\nclass = y[0]"] ;
59 -> 60 ;
61 [label="entropy = 0.213\nsamples = 177\nvalue = [172, 2, 3]\nclass = y[0]"] ;
60 -> 61 ;
62 [label="entropy = 0.053\nsamples = 335\nvalue = [333, 0, 2]\nclass = y[0]"] ;
60 -> 62 ;
63 [label="BMI <= 21.5\nentropy = 0.099\nsamples = 701\nvalue = [692, 0, 9]\nclass = y[0]"] ;
59 -> 63 ;
64 [label="entropy = 0.0\nsamples = 200\nvalue = [200, 0, 0]\nclass = y[0]"] ;
63 -> 64 ;
65 [label="entropy = 0.13\nsamples = 501\nvalue = [492, 0, 9]\nclass = y[0]"] ;
63 -> 65 ;
66 [label="PhysActivity <= 0.994\nentropy = 0.519\nsamples = 2107\nvalue = [1919, 71, 117]\nclass = y[0]"] ;
58 -> 66 ;
67 [label="BMI <= 27.5\nentropy = 0.778\nsamples = 609\nvalue = [514, 55, 40]\nclass = y[0]"] ;
66 -> 67 ;
68 [label="entropy = 0.959\nsamples = 200\nvalue = [144, 52, 4]\nclass = y[0]"] ;
67 -> 68 ;
69 [label="entropy = 0.491\nsamples = 409\nvalue = [370, 3, 36]\nclass = y[0]"] ;
67 -> 69 ;
70 [label="Income <= 7.164\nentropy = 0.377\nsamples = 1498\nvalue = [1405, 16, 77]\nclass = y[0]"] ;
66 -> 70 ;
71 [label="entropy = 0.369\nsamples = 1495\nvalue = [1405, 16, 74]\nclass = y[0]"] ;
70 -> 71 ;
72 [label="entropy = 0.0\nsamples = 3\nvalue = [0, 0, 3]\nclass = y[2]"] ;
70 -> 72 ;
73 [label="Age <= 3.004\nentropy = 0.885\nsamples = 9939\nvalue = [8007, 1324, 608]\nclass = y[0]"] ;
57 -> 73 ;
74 [label="AnyHealthcare <= 0.985\nentropy = 0.435\nsamples = 3240\nvalue = [3014.0, 109.0, 117.0]\nclass = y[0]"] ;
73 -> 74 ;
75 [label="AnyHealthcare <= 0.008\nentropy = 0.814\nsamples = 356\nvalue = [293, 48, 15]\nclass = y[0]"] ;
74 -> 75 ;
76 [label="entropy = 0.091\nsamples = 296\nvalue = [293, 1, 2]\nclass = y[0]"] ;
75 -> 76 ;
77 [label="entropy = 0.754\nsamples = 60\nvalue = [0, 47, 13]\nclass = y[1]"] ;
75 -> 77 ;
78 [label="GenHlth <= 1.975\nentropy = 0.367\nsamples = 2884\nvalue = [2721, 61, 102]\nclass = y[0]"] ;
74 -> 78 ;
79 [label="entropy = 0.672\nsamples = 17\nvalue = [0, 3, 14]\nclass = y[2]"] ;
78 -> 79 ;
80 [label="entropy = 0.34\nsamples = 2867\nvalue = [2721, 58, 88]\nclass = y[0]"] ;
78 -> 80 ;
81 [label="GenHlth <= 1.999\nentropy = 1.039\nsamples = 6699\nvalue = [4993.0, 1215.0, 491.0]\nclass = y[0]"] ;
73 -> 81 ;
82 [label="Fruits <= 0.948\nentropy = 0.595\nsamples = 569\nvalue = [0.0, 487.0, 82.0]\nclass = y[1]"] ;
81 -> 82 ;
83 [label="entropy = 0.401\nsamples = 401\nvalue = [0, 369, 32]\nclass = y[1]"] ;
82 -> 83 ;
84 [label="entropy = 0.878\nsamples = 168\nvalue = [0.0, 118.0, 50.0]\nclass = y[1]"] ;
82 -> 84 ;
85 [label="Income <= 7.001\nentropy = 0.867\nsamples = 6130\nvalue = [4993, 728, 409]\nclass = y[0]"] ;
81 -> 85 ;
86 [label="entropy = 0.707\nsamples = 5780\nvalue = [4993.0, 463.0, 324.0]\nclass = y[0]"] ;
85 -> 86 ;
87 [label="entropy = 0.8\nsamples = 350\nvalue = [0, 265, 85]\nclass = y[1]"] ;
85 -> 87 ;
88 [label="GenHlth <= 1.998\nentropy = 0.489\nsamples = 12743\nvalue = [11705.0, 502.0, 536.0]\nclass = y[0]"] ;
56 -> 88 ;
89 [label="Age <= 2.106\nentropy = 0.937\nsamples = 221\nvalue = [0, 143, 78]\nclass = y[1]"] ;
88 -> 89 ;
90 [label="entropy = 0.0\nsamples = 8\nvalue = [0, 0, 8]\nclass = y[2]"] ;
89 -> 90 ;
91 [label="PhysHlth <= 3.009\nentropy = 0.914\nsamples = 213\nvalue = [0, 143, 70]\nclass = y[1]"] ;
89 -> 91 ;
92 [label="Sex <= 0.999\nentropy = 0.963\nsamples = 181\nvalue = [0, 111, 70]\nclass = y[1]"] ;
91 -> 92 ;
93 [label="entropy = 0.852\nsamples = 137\nvalue = [0, 99, 38]\nclass = y[1]"] ;
92 -> 93 ;
94 [label="entropy = 0.845\nsamples = 44\nvalue = [0, 12, 32]\nclass = y[2]"] ;
92 -> 94 ;
95 [label="entropy = 0.0\nsamples = 32\nvalue = [0, 32, 0]\nclass = y[1]"] ;
91 -> 95 ;
96 [label="Sex <= 0.009\nentropy = 0.412\nsamples = 12522\nvalue = [11705, 359, 458]\nclass = y[0]"] ;
88 -> 96 ;
97 [label="Fruits <= 0.012\nentropy = 0.33\nsamples = 7034\nvalue = [6686.0, 231.0, 117.0]\nclass = y[0]"] ;
96 -> 97 ;
98 [label="NoDocbcCost <= 0.5\nentropy = 0.156\nsamples = 1960\nvalue = [1922, 13, 25]\nclass = y[0]"] ;
97 -> 98 ;
99 [label="entropy = 0.143\nsamples = 1873\nvalue = [1840, 10, 23]\nclass = y[0]"] ;
98 -> 99 ;
100 [label="entropy = 0.373\nsamples = 87\nvalue = [82, 3, 2]\nclass = y[0]"] ;
98 -> 100 ;
101 [label="MentHlth <= 0.962\nentropy = 0.385\nsamples = 5074\nvalue = [4764, 218, 92]\nclass = y[0]"] ;
97 -> 101 ;
102 [label="entropy = 0.472\nsamples = 3303\nvalue = [3040, 182, 81]\nclass = y[0]"] ;
101 -> 102 ;
103 [label="entropy = 0.198\nsamples = 1771\nvalue = [1724, 36, 11]\nclass = y[0]"] ;
101 -> 103 ;
104 [label="Sex <= 0.999\nentropy = 0.493\nsamples = 5488\nvalue = [5019, 128, 341]\nclass = y[0]"] ;
96 -> 104 ;
105 [label="BMI <= 36.292\nentropy = 0.969\nsamples = 151\nvalue = [0.0, 60.0, 91.0]\nclass = y[2]"] ;
104 -> 105 ;
106 [label="entropy = 0.86\nsamples = 127\nvalue = [0, 36, 91]\nclass = y[2]"] ;
105 -> 106 ;
107 [label="entropy = 0.0\nsamples = 24\nvalue = [0, 24, 0]\nclass = y[1]"] ;
105 -> 107 ;
108 [label="Age <= 6.004\nentropy = 0.37\nsamples = 5337\nvalue = [5019.0, 68.0, 250.0]\nclass = y[0]"] ;
104 -> 108 ;
109 [label="entropy = 0.188\nsamples = 3511\nvalue = [3420, 12, 79]\nclass = y[0]"] ;
108 -> 109 ;
110 [label="entropy = 0.642\nsamples = 1826\nvalue = [1599, 56, 171]\nclass = y[0]"] ;
108 -> 110 ;
111 [label="Income <= 7.998\nentropy = 1.101\nsamples = 12875\nvalue = [9378, 2213, 1284]\nclass = y[0]"] ;
3 -> 111 ;
112 [label="HighChol <= 1.0\nentropy = 1.302\nsamples = 5983\nvalue = [3686.0, 1591.0, 706.0]\nclass = y[0]"] ;
111 -> 112 ;
113 [label="GenHlth <= 1.995\nentropy = 0.742\nsamples = 1342\nvalue = [0, 1060, 282]\nclass = y[1]"] ;
112 -> 113 ;
114 [label="Age <= 7.869\nentropy = 0.515\nsamples = 686\nvalue = [0, 607, 79]\nclass = y[1]"] ;
113 -> 114 ;
115 [label="Sex <= 0.893\nentropy = 0.59\nsamples = 527\nvalue = [0, 452, 75]\nclass = y[1]"] ;
114 -> 115 ;
116 [label="NoDocbcCost <= 0.019\nentropy = 0.448\nsamples = 396\nvalue = [0, 359, 37]\nclass = y[1]"] ;
115 -> 116 ;
117 [label="entropy = 0.599\nsamples = 254\nvalue = [0, 217, 37]\nclass = y[1]"] ;
116 -> 117 ;
118 [label="entropy = 0.0\nsamples = 142\nvalue = [0, 142, 0]\nclass = y[1]"] ;
116 -> 118 ;
119 [label="Veggies <= 0.938\nentropy = 0.869\nsamples = 131\nvalue = [0, 93, 38]\nclass = y[1]"] ;
115 -> 119 ;
120 [label="entropy = 0.576\nsamples = 73\nvalue = [0, 63, 10]\nclass = y[1]"] ;
119 -> 120 ;
121 [label="entropy = 0.999\nsamples = 58\nvalue = [0.0, 30.0, 28.0]\nclass = y[1]"] ;
119 -> 121 ;
122 [label="BMI <= 32.809\nentropy = 0.169\nsamples = 159\nvalue = [0, 155, 4]\nclass = y[1]"] ;
114 -> 122 ;
123 [label="entropy = 0.0\nsamples = 133\nvalue = [0, 133, 0]\nclass = y[1]"] ;
122 -> 123 ;
124 [label="Income <= 5.983\nentropy = 0.619\nsamples = 26\nvalue = [0, 22, 4]\nclass = y[1]"] ;
122 -> 124 ;
125 [label="entropy = 0.0\nsamples = 22\nvalue = [0, 22, 0]\nclass = y[1]"] ;
124 -> 125 ;
126 [label="entropy = 0.0\nsamples = 4\nvalue = [0, 0, 4]\nclass = y[2]"] ;
124 -> 126 ;
127 [label="MentHlth <= 5.054\nentropy = 0.893\nsamples = 656\nvalue = [0, 453, 203]\nclass = y[1]"] ;
113 -> 127 ;
128 [label="Age <= 4.146\nentropy = 0.953\nsamples = 536\nvalue = [0, 336, 200]\nclass = y[1]"] ;
127 -> 128 ;
129 [label="PhysActivity <= 0.999\nentropy = 0.889\nsamples = 98\nvalue = [0, 30, 68]\nclass = y[2]"] ;
128 -> 129 ;
130 [label="entropy = 0.722\nsamples = 35\nvalue = [0, 28, 7]\nclass = y[1]"] ;
129 -> 130 ;
131 [label="entropy = 0.203\nsamples = 63\nvalue = [0, 2, 61]\nclass = y[2]"] ;
129 -> 131 ;
132 [label="BMI <= 31.996\nentropy = 0.883\nsamples = 438\nvalue = [0, 306, 132]\nclass = y[1]"] ;
128 -> 132 ;
133 [label="entropy = 0.766\nsamples = 372\nvalue = [0, 289, 83]\nclass = y[1]"] ;
132 -> 133 ;
134 [label="entropy = 0.823\nsamples = 66\nvalue = [0, 17, 49]\nclass = y[2]"] ;
132 -> 134 ;
135 [label="Sex <= 0.994\nentropy = 0.169\nsamples = 120\nvalue = [0, 117, 3]\nclass = y[1]"] ;
127 -> 135 ;
136 [label="MentHlth <= 8.5\nentropy = 0.071\nsamples = 118\nvalue = [0, 117, 1]\nclass = y[1]"] ;
135 -> 136 ;
137 [label="entropy = 0.276\nsamples = 21\nvalue = [0, 20, 1]\nclass = y[1]"] ;
136 -> 137 ;
138 [label="entropy = 0.0\nsamples = 97\nvalue = [0, 97, 0]\nclass = y[1]"] ;
136 -> 138 ;
139 [label="entropy = 0.0\nsamples = 2\nvalue = [0, 0, 2]\nclass = y[2]"] ;
135 -> 139 ;
140 [label="Income <= 7.0\nentropy = 0.937\nsamples = 4641\nvalue = [3686, 531, 424]\nclass = y[0]"] ;
112 -> 140 ;
141 [label="GenHlth <= 1.972\nentropy = 0.78\nsamples = 4367\nvalue = [3686, 339, 342]\nclass = y[0]"] ;
140 -> 141 ;
142 [label="GenHlth <= 1.002\nentropy = 0.912\nsamples = 1295\nvalue = [1018, 216, 61]\nclass = y[0]"] ;
141 -> 142 ;
143 [label="Income <= 3.999\nentropy = 0.633\nsamples = 1161\nvalue = [1018, 111, 32]\nclass = y[0]"] ;
142 -> 143 ;
144 [label="entropy = 1.201\nsamples = 218\nvalue = [134, 71, 13]\nclass = y[0]"] ;
143 -> 144 ;
145 [label="entropy = 0.394\nsamples = 943\nvalue = [884, 40, 19]\nclass = y[0]"] ;
143 -> 145 ;
146 [label="Fruits <= 0.795\nentropy = 0.754\nsamples = 134\nvalue = [0.0, 105.0, 29.0]\nclass = y[1]"] ;
142 -> 146 ;
147 [label="entropy = 0.323\nsamples = 85\nvalue = [0, 80, 5]\nclass = y[1]"] ;
146 -> 147 ;
148 [label="entropy = 1.0\nsamples = 49\nvalue = [0, 25, 24]\nclass = y[1]"] ;
146 -> 148 ;
149 [label="PhysActivity <= 0.995\nentropy = 0.678\nsamples = 3072\nvalue = [2668, 123, 281]\nclass = y[0]"] ;
141 -> 149 ;
150 [label="PhysActivity <= 0.003\nentropy = 0.929\nsamples = 709\nvalue = [564, 88, 57]\nclass = y[0]"] ;
149 -> 150 ;
151 [label="entropy = 0.614\nsamples = 635\nvalue = [564, 42, 29]\nclass = y[0]"] ;
150 -> 151 ;
152 [label="entropy = 0.957\nsamples = 74\nvalue = [0, 46, 28]\nclass = y[1]"] ;
150 -> 152 ;
153 [label="Income <= 6.969\nentropy = 0.561\nsamples = 2363\nvalue = [2104, 35, 224]\nclass = y[0]"] ;
149 -> 153 ;
154 [label="entropy = 0.688\nsamples = 1307\nvalue = [1114, 26, 167]\nclass = y[0]"] ;
153 -> 154 ;
155 [label="entropy = 0.373\nsamples = 1056\nvalue = [990, 9, 57]\nclass = y[0]"] ;
153 -> 155 ;
156 [label="Education <= 4.018\nentropy = 0.88\nsamples = 274\nvalue = [0, 192, 82]\nclass = y[1]"] ;
140 -> 156 ;
157 [label="entropy = 0.0\nsamples = 14\nvalue = [0, 0, 14]\nclass = y[2]"] ;
156 -> 157 ;
158 [label="BMI <= 22.642\nentropy = 0.829\nsamples = 260\nvalue = [0, 192, 68]\nclass = y[1]"] ;
156 -> 158 ;
159 [label="entropy = 0.0\nsamples = 9\nvalue = [0, 0, 9]\nclass = y[2]"] ;
158 -> 159 ;
160 [label="Education <= 5.907\nentropy = 0.787\nsamples = 251\nvalue = [0, 192, 59]\nclass = y[1]"] ;
158 -> 160 ;
161 [label="entropy = 0.528\nsamples = 184\nvalue = [0, 162, 22]\nclass = y[1]"] ;
160 -> 161 ;
162 [label="entropy = 0.992\nsamples = 67\nvalue = [0, 30, 37]\nclass = y[2]"] ;
160 -> 162 ;
163 [label="HighChol <= 1.0\nentropy = 0.841\nsamples = 6892\nvalue = [5692, 622, 578]\nclass = y[0]"] ;
111 -> 163 ;
164 [label="Age <= 4.002\nentropy = 0.915\nsamples = 588\nvalue = [0, 394, 194]\nclass = y[1]"] ;
163 -> 164 ;
165 [label="entropy = 0.0\nsamples = 43\nvalue = [0, 0, 43]\nclass = y[2]"] ;
164 -> 165 ;
166 [label="MentHlth <= 0.009\nentropy = 0.851\nsamples = 545\nvalue = [0, 394, 151]\nclass = y[1]"] ;
164 -> 166 ;
167 [label="Sex <= 0.995\nentropy = 0.98\nsamples = 309\nvalue = [0, 180, 129]\nclass = y[1]"] ;
166 -> 167 ;
168 [label="BMI <= 27.992\nentropy = 0.798\nsamples = 186\nvalue = [0, 141, 45]\nclass = y[1]"] ;
167 -> 168 ;
169 [label="entropy = 0.471\nsamples = 139\nvalue = [0, 125, 14]\nclass = y[1]"] ;
168 -> 169 ;
170 [label="entropy = 0.925\nsamples = 47\nvalue = [0.0, 16.0, 31.0]\nclass = y[2]"] ;
168 -> 170 ;
171 [label="Age <= 5.135\nentropy = 0.901\nsamples = 123\nvalue = [0, 39, 84]\nclass = y[2]"] ;
167 -> 171 ;
172 [label="entropy = 0.639\nsamples = 37\nvalue = [0, 31, 6]\nclass = y[1]"] ;
171 -> 172 ;
173 [label="entropy = 0.446\nsamples = 86\nvalue = [0, 8, 78]\nclass = y[2]"] ;
171 -> 173 ;
174 [label="PhysActivity <= 0.035\nentropy = 0.447\nsamples = 236\nvalue = [0, 214, 22]\nclass = y[1]"] ;
166 -> 174 ;
175 [label="entropy = 0.0\nsamples = 4\nvalue = [0, 0, 4]\nclass = y[2]"] ;
174 -> 175 ;
176 [label="NoDocbcCost <= 0.047\nentropy = 0.394\nsamples = 232\nvalue = [0, 214, 18]\nclass = y[1]"] ;
174 -> 176 ;
177 [label="entropy = 0.275\nsamples = 211\nvalue = [0, 201, 10]\nclass = y[1]"] ;
176 -> 177 ;
178 [label="entropy = 0.959\nsamples = 21\nvalue = [0, 13, 8]\nclass = y[1]"] ;
176 -> 178 ;
179 [label="BMI <= 27.005\nentropy = 0.552\nsamples = 6304\nvalue = [5692.0, 228.0, 384.0]\nclass = y[0]"] ;
163 -> 179 ;
180 [label="PhysHlth <= 0.015\nentropy = 0.341\nsamples = 3736\nvalue = [3538, 47, 151]\nclass = y[0]"] ;
179 -> 180 ;
181 [label="GenHlth <= 1.127\nentropy = 0.282\nsamples = 2816\nvalue = [2685, 5, 126]\nclass = y[0]"] ;
180 -> 181 ;
182 [label="BMI <= 26.5\nentropy = 0.046\nsamples = 1089\nvalue = [1084, 1, 4]\nclass = y[0]"] ;
181 -> 182 ;
183 [label="entropy = 0.04\nsamples = 936\nvalue = [932, 0, 4]\nclass = y[0]"] ;
182 -> 183 ;
184 [label="entropy = 0.057\nsamples = 153\nvalue = [152, 1, 0]\nclass = y[0]"] ;
182 -> 184 ;
185 [label="GenHlth <= 1.954\nentropy = 0.392\nsamples = 1727\nvalue = [1601.0, 4.0, 122.0]\nclass = y[0]"] ;
181 -> 185 ;
186 [label="entropy = 0.0\nsamples = 12\nvalue = [0, 0, 12]\nclass = y[2]"] ;
185 -> 186 ;
187 [label="entropy = 0.367\nsamples = 1715\nvalue = [1601, 4, 110]\nclass = y[0]"] ;
185 -> 187 ;
188 [label="Sex <= 0.042\nentropy = 0.446\nsamples = 920\nvalue = [853, 42, 25]\nclass = y[0]"] ;
180 -> 188 ;
189 [label="PhysActivity <= 0.837\nentropy = 0.276\nsamples = 512\nvalue = [491, 4, 17]\nclass = y[0]"] ;
188 -> 189 ;
190 [label="entropy = 0.65\nsamples = 54\nvalue = [45, 0, 9]\nclass = y[0]"] ;
189 -> 190 ;
191 [label="entropy = 0.199\nsamples = 458\nvalue = [446, 4, 8]\nclass = y[0]"] ;
189 -> 191 ;
192 [label="Sex <= 0.988\nentropy = 0.583\nsamples = 408\nvalue = [362, 38, 8]\nclass = y[0]"] ;
188 -> 192 ;
193 [label="entropy = 0.0\nsamples = 13\nvalue = [0, 13, 0]\nclass = y[1]"] ;
192 -> 193 ;
194 [label="entropy = 0.481\nsamples = 395\nvalue = [362, 25, 8]\nclass = y[0]"] ;
192 -> 194 ;
195 [label="PhysHlth <= 0.985\nentropy = 0.797\nsamples = 2568\nvalue = [2154.0, 181.0, 233.0]\nclass = y[0]"] ;
179 -> 195 ;
196 [label="PhysHlth <= 0.007\nentropy = 0.888\nsamples = 2012\nvalue = [1631, 174, 207]\nclass = y[0]"] ;
195 -> 196 ;
197 [label="GenHlth <= 1.982\nentropy = 0.821\nsamples = 1963\nvalue = [1631, 135, 197]\nclass = y[0]"] ;
196 -> 197 ;
198 [label="entropy = 0.871\nsamples = 550\nvalue = [439, 89, 22]\nclass = y[0]"] ;
197 -> 198 ;
199 [label="entropy = 0.741\nsamples = 1413\nvalue = [1192.0, 46.0, 175.0]\nclass = y[0]"] ;
197 -> 199 ;
200 [label="Fruits <= 0.846\nentropy = 0.73\nsamples = 49\nvalue = [0, 39, 10]\nclass = y[1]"] ;
196 -> 200 ;
201 [label="entropy = 0.0\nsamples = 10\nvalue = [0, 0, 10]\nclass = y[2]"] ;
200 -> 201 ;
202 [label="entropy = 0.0\nsamples = 39\nvalue = [0, 39, 0]\nclass = y[1]"] ;
200 -> 202 ;
203 [label="PhysActivity <= 0.826\nentropy = 0.369\nsamples = 556\nvalue = [523, 7, 26]\nclass = y[0]"] ;
195 -> 203 ;
204 [label="Smoker <= 0.5\nentropy = 0.536\nsamples = 98\nvalue = [86, 0, 12]\nclass = y[0]"] ;
203 -> 204 ;
205 [label="entropy = 0.709\nsamples = 62\nvalue = [50, 0, 12]\nclass = y[0]"] ;
204 -> 205 ;
206 [label="entropy = 0.0\nsamples = 36\nvalue = [36, 0, 0]\nclass = y[0]"] ;
204 -> 206 ;
207 [label="Education <= 5.5\nentropy = 0.311\nsamples = 458\nvalue = [437, 7, 14]\nclass = y[0]"] ;
203 -> 207 ;
208 [label="entropy = 0.536\nsamples = 147\nvalue = [133.0, 4.0, 10.0]\nclass = y[0]"] ;
207 -> 208 ;
209 [label="entropy = 0.177\nsamples = 311\nvalue = [304.0, 3.0, 4.0]\nclass = y[0]"] ;
207 -> 209 ;
210 [label="Age <= 9.0\nentropy = 1.25\nsamples = 36565\nvalue = [23731.0, 8803.0, 4031.0]\nclass = y[0]"] ;
2 -> 210 ;
211 [label="GenHlth <= 2.0\nentropy = 0.731\nsamples = 1329\nvalue = [0, 1057, 272]\nclass = y[1]"] ;
210 -> 211 ;
212 [label="Smoker <= 0.78\nentropy = 0.55\nsamples = 527\nvalue = [0.0, 460.0, 67.0]\nclass = y[1]"] ;
211 -> 212 ;
213 [label="Income <= 5.978\nentropy = 0.699\nsamples = 323\nvalue = [0.0, 262.0, 61.0]\nclass = y[1]"] ;
212 -> 213 ;
214 [label="BMI <= 23.89\nentropy = 0.914\nsamples = 88\nvalue = [0, 59, 29]\nclass = y[1]"] ;
213 -> 214 ;
215 [label="Education <= 3.161\nentropy = 0.169\nsamples = 40\nvalue = [0, 39, 1]\nclass = y[1]"] ;
214 -> 215 ;
216 [label="entropy = 0.0\nsamples = 1\nvalue = [0, 0, 1]\nclass = y[2]"] ;
215 -> 216 ;
217 [label="entropy = 0.0\nsamples = 39\nvalue = [0, 39, 0]\nclass = y[1]"] ;
215 -> 217 ;
218 [label="BMI <= 31.18\nentropy = 0.98\nsamples = 48\nvalue = [0, 20, 28]\nclass = y[2]"] ;
214 -> 218 ;
219 [label="BMI <= 30.0\nentropy = 0.391\nsamples = 26\nvalue = [0, 2, 24]\nclass = y[2]"] ;
218 -> 219 ;
220 [label="entropy = 0.0\nsamples = 18\nvalue = [0, 0, 18]\nclass = y[2]"] ;
219 -> 220 ;
221 [label="entropy = 0.811\nsamples = 8\nvalue = [0, 2, 6]\nclass = y[2]"] ;
219 -> 221 ;
222 [label="DiffWalk <= 0.461\nentropy = 0.684\nsamples = 22\nvalue = [0, 18, 4]\nclass = y[1]"] ;
218 -> 222 ;
223 [label="entropy = 0.0\nsamples = 18\nvalue = [0, 18, 0]\nclass = y[1]"] ;
222 -> 223 ;
224 [label="entropy = 0.0\nsamples = 4\nvalue = [0, 0, 4]\nclass = y[2]"] ;
222 -> 224 ;
225 [label="BMI <= 22.529\nentropy = 0.574\nsamples = 235\nvalue = [0, 203, 32]\nclass = y[1]"] ;
213 -> 225 ;
226 [label="PhysActivity <= 0.738\nentropy = 0.837\nsamples = 15\nvalue = [0, 4, 11]\nclass = y[2]"] ;
225 -> 226 ;
227 [label="entropy = 0.0\nsamples = 4\nvalue = [0, 4, 0]\nclass = y[1]"] ;
226 -> 227 ;
228 [label="entropy = 0.0\nsamples = 11\nvalue = [0, 0, 11]\nclass = y[2]"] ;
226 -> 228 ;
229 [label="Education <= 5.013\nentropy = 0.454\nsamples = 220\nvalue = [0, 199, 21]\nclass = y[1]"] ;
225 -> 229 ;
230 [label="PhysActivity <= 0.065\nentropy = 0.996\nsamples = 26\nvalue = [0, 12, 14]\nclass = y[2]"] ;
229 -> 230 ;
231 [label="entropy = 0.0\nsamples = 10\nvalue = [0, 10, 0]\nclass = y[1]"] ;
230 -> 231 ;
232 [label="entropy = 0.544\nsamples = 16\nvalue = [0, 2, 14]\nclass = y[2]"] ;
230 -> 232 ;
233 [label="Fruits <= 0.779\nentropy = 0.224\nsamples = 194\nvalue = [0.0, 187.0, 7.0]\nclass = y[1]"] ;
229 -> 233 ;
234 [label="entropy = 0.0\nsamples = 82\nvalue = [0, 82, 0]\nclass = y[1]"] ;
233 -> 234 ;
235 [label="entropy = 0.337\nsamples = 112\nvalue = [0, 105, 7]\nclass = y[1]"] ;
233 -> 235 ;
236 [label="BMI <= 26.99\nentropy = 0.191\nsamples = 204\nvalue = [0, 198, 6]\nclass = y[1]"] ;
212 -> 236 ;
237 [label="entropy = 0.0\nsamples = 107\nvalue = [0, 107, 0]\nclass = y[1]"] ;
236 -> 237 ;
238 [label="BMI <= 27.031\nentropy = 0.335\nsamples = 97\nvalue = [0, 91, 6]\nclass = y[1]"] ;
236 -> 238 ;
239 [label="entropy = 0.0\nsamples = 2\nvalue = [0, 0, 2]\nclass = y[2]"] ;
238 -> 239 ;
240 [label="PhysActivity <= 0.931\nentropy = 0.252\nsamples = 95\nvalue = [0, 91, 4]\nclass = y[1]"] ;
238 -> 240 ;
241 [label="entropy = 0.0\nsamples = 50\nvalue = [0, 50, 0]\nclass = y[1]"] ;
240 -> 241 ;
242 [label="HighChol <= 0.003\nentropy = 0.433\nsamples = 45\nvalue = [0, 41, 4]\nclass = y[1]"] ;
240 -> 242 ;
243 [label="entropy = 0.0\nsamples = 2\nvalue = [0, 0, 2]\nclass = y[2]"] ;
242 -> 243 ;
244 [label="entropy = 0.271\nsamples = 43\nvalue = [0, 41, 2]\nclass = y[1]"] ;
242 -> 244 ;
245 [label="Smoker <= 0.991\nentropy = 0.82\nsamples = 802\nvalue = [0, 597, 205]\nclass = y[1]"] ;
211 -> 245 ;
246 [label="Education <= 6.0\nentropy = 0.692\nsamples = 695\nvalue = [0, 566, 129]\nclass = y[1]"] ;
245 -> 246 ;
247 [label="BMI <= 26.057\nentropy = 0.565\nsamples = 519\nvalue = [0, 450, 69]\nclass = y[1]"] ;
246 -> 247 ;
248 [label="Education <= 4.042\nentropy = 0.079\nsamples = 205\nvalue = [0, 203, 2]\nclass = y[1]"] ;
247 -> 248 ;
249 [label="DiffWalk <= 0.016\nentropy = 0.811\nsamples = 4\nvalue = [0, 3, 1]\nclass = y[1]"] ;
248 -> 249 ;
250 [label="entropy = 0.0\nsamples = 1\nvalue = [0, 0, 1]\nclass = y[2]"] ;
249 -> 250 ;
251 [label="entropy = 0.0\nsamples = 3\nvalue = [0, 3, 0]\nclass = y[1]"] ;
249 -> 251 ;
252 [label="BMI <= 22.002\nentropy = 0.045\nsamples = 201\nvalue = [0, 200, 1]\nclass = y[1]"] ;
248 -> 252 ;
253 [label="entropy = 0.323\nsamples = 17\nvalue = [0, 16, 1]\nclass = y[1]"] ;
252 -> 253 ;
254 [label="entropy = 0.0\nsamples = 184\nvalue = [0, 184, 0]\nclass = y[1]"] ;
252 -> 254 ;
255 [label="HeartDiseaseorAttack <= 0.094\nentropy = 0.748\nsamples = 314\nvalue = [0.0, 247.0, 67.0]\nclass = y[1]"] ;
247 -> 255 ;
256 [label="HighChol <= 0.003\nentropy = 0.679\nsamples = 301\nvalue = [0, 247, 54]\nclass = y[1]"] ;
255 -> 256 ;
257 [label="entropy = 0.985\nsamples = 49\nvalue = [0, 28, 21]\nclass = y[1]"] ;
256 -> 257 ;
258 [label="entropy = 0.56\nsamples = 252\nvalue = [0, 219, 33]\nclass = y[1]"] ;
256 -> 258 ;
259 [label="entropy = 0.0\nsamples = 13\nvalue = [0, 0, 13]\nclass = y[2]"] ;
255 -> 259 ;
260 [label="BMI <= 21.23\nentropy = 0.926\nsamples = 176\nvalue = [0.0, 116.0, 60.0]\nclass = y[1]"] ;
246 -> 260 ;
261 [label="entropy = 0.0\nsamples = 33\nvalue = [0, 33, 0]\nclass = y[1]"] ;
260 -> 261 ;
262 [label="BMI <= 25.082\nentropy = 0.981\nsamples = 143\nvalue = [0, 83, 60]\nclass = y[1]"] ;
260 -> 262 ;
263 [label="entropy = 0.0\nsamples = 27\nvalue = [0, 0, 27]\nclass = y[2]"] ;
262 -> 263 ;
264 [label="HighChol <= 0.006\nentropy = 0.861\nsamples = 116\nvalue = [0, 83, 33]\nclass = y[1]"] ;
262 -> 264 ;
265 [label="entropy = 0.0\nsamples = 17\nvalue = [0, 0, 17]\nclass = y[2]"] ;
264 -> 265 ;
266 [label="entropy = 0.638\nsamples = 99\nvalue = [0, 83, 16]\nclass = y[1]"] ;
264 -> 266 ;
267 [label="NoDocbcCost <= 0.003\nentropy = 0.868\nsamples = 107\nvalue = [0.0, 31.0, 76.0]\nclass = y[2]"] ;
245 -> 267 ;
268 [label="Age <= 8.993\nentropy = 0.103\nsamples = 74\nvalue = [0, 1, 73]\nclass = y[2]"] ;
267 -> 268 ;
269 [label="entropy = 0.0\nsamples = 73\nvalue = [0, 0, 73]\nclass = y[2]"] ;
268 -> 269 ;
270 [label="entropy = 0.0\nsamples = 1\nvalue = [0, 1, 0]\nclass = y[1]"] ;
268 -> 270 ;
271 [label="BMI <= 32.891\nentropy = 0.439\nsamples = 33\nvalue = [0, 30, 3]\nclass = y[1]"] ;
267 -> 271 ;
272 [label="Income <= 7.866\nentropy = 0.337\nsamples = 32\nvalue = [0, 30, 2]\nclass = y[1]"] ;
271 -> 272 ;
273 [label="Veggies <= 0.5\nentropy = 0.918\nsamples = 6\nvalue = [0, 4, 2]\nclass = y[1]"] ;
272 -> 273 ;
274 [label="entropy = 0.0\nsamples = 4\nvalue = [0, 4, 0]\nclass = y[1]"] ;
273 -> 274 ;
275 [label="entropy = 0.0\nsamples = 2\nvalue = [0, 0, 2]\nclass = y[2]"] ;
273 -> 275 ;
276 [label="entropy = 0.0\nsamples = 26\nvalue = [0, 26, 0]\nclass = y[1]"] ;
272 -> 276 ;
277 [label="entropy = 0.0\nsamples = 1\nvalue = [0, 0, 1]\nclass = y[2]"] ;
271 -> 277 ;
278 [label="GenHlth <= 1.0\nentropy = 1.209\nsamples = 35236\nvalue = [23731, 7746, 3759]\nclass = y[0]"] ;
210 -> 278 ;
279 [label="Age <= 9.0\nentropy = 0.672\nsamples = 10723\nvalue = [9356, 863, 504]\nclass = y[0]"] ;
278 -> 279 ;
280 [label="Income <= 6.5\nentropy = 0.28\nsamples = 3458\nvalue = [3320, 84, 54]\nclass = y[0]"] ;
279 -> 280 ;
281 [label="BMI <= 28.001\nentropy = 0.438\nsamples = 911\nvalue = [843, 54, 14]\nclass = y[0]"] ;
280 -> 281 ;
282 [label="BMI <= 25.5\nentropy = 0.154\nsamples = 682\nvalue = [669, 5, 8]\nclass = y[0]"] ;
281 -> 282 ;
283 [label="Income <= 4.5\nentropy = 0.063\nsamples = 456\nvalue = [453, 2, 1]\nclass = y[0]"] ;
282 -> 283 ;
284 [label="entropy = 0.188\nsamples = 123\nvalue = [120, 2, 1]\nclass = y[0]"] ;
283 -> 284 ;
285 [label="entropy = 0.0\nsamples = 333\nvalue = [333, 0, 0]\nclass = y[0]"] ;
283 -> 285 ;
286 [label="Income <= 5.5\nentropy = 0.3\nsamples = 226\nvalue = [216, 3, 7]\nclass = y[0]"] ;
282 -> 286 ;
287 [label="entropy = 0.417\nsamples = 120\nvalue = [112, 3, 5]\nclass = y[0]"] ;
286 -> 287 ;
288 [label="entropy = 0.135\nsamples = 106\nvalue = [104, 0, 2]\nclass = y[0]"] ;
286 -> 288 ;
289 [label="HighChol <= 0.001\nentropy = 0.915\nsamples = 229\nvalue = [174, 49, 6]\nclass = y[0]"] ;
281 -> 289 ;
290 [label="BMI <= 36.5\nentropy = 0.295\nsamples = 133\nvalue = [127, 1, 5]\nclass = y[0]"] ;
289 -> 290 ;
291 [label="entropy = 0.332\nsamples = 114\nvalue = [108, 1, 5]\nclass = y[0]"] ;
290 -> 291 ;
292 [label="entropy = 0.0\nsamples = 19\nvalue = [19, 0, 0]\nclass = y[0]"] ;
290 -> 292 ;
293 [label="BMI <= 28.992\nentropy = 1.073\nsamples = 96\nvalue = [47, 48, 1]\nclass = y[1]"] ;
289 -> 293 ;
294 [label="entropy = 0.0\nsamples = 25\nvalue = [0, 25, 0]\nclass = y[1]"] ;
293 -> 294 ;
295 [label="entropy = 1.007\nsamples = 71\nvalue = [47, 23, 1]\nclass = y[0]"] ;
293 -> 295 ;
296 [label="Smoker <= 0.009\nentropy = 0.209\nsamples = 2547\nvalue = [2477, 30, 40]\nclass = y[0]"] ;
280 -> 296 ;
297 [label="HighChol <= 0.5\nentropy = 0.13\nsamples = 1691\nvalue = [1664, 6, 21]\nclass = y[0]"] ;
296 -> 297 ;
298 [label="MentHlth <= 23.5\nentropy = 0.05\nsamples = 1200\nvalue = [1194, 2, 4]\nclass = y[0]"] ;
297 -> 298 ;
299 [label="entropy = 0.043\nsamples = 1190\nvalue = [1185, 2, 3]\nclass = y[0]"] ;
298 -> 299 ;
300 [label="entropy = 0.469\nsamples = 10\nvalue = [9, 0, 1]\nclass = y[0]"] ;
298 -> 300 ;
301 [label="HeartDiseaseorAttack <= 0.07\nentropy = 0.285\nsamples = 491\nvalue = [470.0, 4.0, 17.0]\nclass = y[0]"] ;
297 -> 301 ;
302 [label="entropy = 0.217\nsamples = 476\nvalue = [462, 4, 10]\nclass = y[0]"] ;
301 -> 302 ;
303 [label="entropy = 0.997\nsamples = 15\nvalue = [8, 0, 7]\nclass = y[0]"] ;
301 -> 303 ;
304 [label="Smoker <= 0.957\nentropy = 0.337\nsamples = 856\nvalue = [813, 24, 19]\nclass = y[0]"] ;
296 -> 304 ;
305 [label="Sex <= 0.839\nentropy = 0.691\nsamples = 27\nvalue = [0, 22, 5]\nclass = y[1]"] ;
304 -> 305 ;
306 [label="entropy = 0.98\nsamples = 12\nvalue = [0, 7, 5]\nclass = y[1]"] ;
305 -> 306 ;
307 [label="entropy = 0.0\nsamples = 15\nvalue = [0, 15, 0]\nclass = y[1]"] ;
305 -> 307 ;
308 [label="PhysActivity <= 0.884\nentropy = 0.148\nsamples = 829\nvalue = [813.0, 2.0, 14.0]\nclass = y[0]"] ;
304 -> 308 ;
309 [label="entropy = 0.404\nsamples = 87\nvalue = [80, 0, 7]\nclass = y[0]"] ;
308 -> 309 ;
310 [label="entropy = 0.104\nsamples = 742\nvalue = [733, 2, 7]\nclass = y[0]"] ;
308 -> 310 ;
311 [label="Sex <= 0.0\nentropy = 0.816\nsamples = 7265\nvalue = [6036, 779, 450]\nclass = y[0]"] ;
279 -> 311 ;
312 [label="Age <= 9.984\nentropy = 0.407\nsamples = 3877\nvalue = [3628, 141, 108]\nclass = y[0]"] ;
311 -> 312 ;
313 [label="entropy = 0.0\nsamples = 30\nvalue = [0, 30, 0]\nclass = y[1]"] ;
312 -> 313 ;
314 [label="Age <= 12.012\nentropy = 0.372\nsamples = 3847\nvalue = [3628, 111, 108]\nclass = y[0]"] ;
312 -> 314 ;
315 [label="BMI <= 36.5\nentropy = 0.256\nsamples = 3306\nvalue = [3189, 56, 61]\nclass = y[0]"] ;
314 -> 315 ;
316 [label="entropy = 0.212\nsamples = 3252\nvalue = [3160, 33, 59]\nclass = y[0]"] ;
315 -> 316 ;
317 [label="entropy = 1.182\nsamples = 54\nvalue = [29.0, 23.0, 2.0]\nclass = y[0]"] ;
315 -> 317 ;
318 [label="Income <= 6.57\nentropy = 0.886\nsamples = 541\nvalue = [439.0, 55.0, 47.0]\nclass = y[0]"] ;
314 -> 318 ;
319 [label="entropy = 0.638\nsamples = 333\nvalue = [287.0, 4.0, 42.0]\nclass = y[0]"] ;
318 -> 319 ;
320 [label="entropy = 0.957\nsamples = 208\nvalue = [152, 51, 5]\nclass = y[0]"] ;
318 -> 320 ;
321 [label="Veggies <= 1.0\nentropy = 1.138\nsamples = 3388\nvalue = [2408, 638, 342]\nclass = y[0]"] ;
311 -> 321 ;
322 [label="Sex <= 0.997\nentropy = 1.244\nsamples = 561\nvalue = [335, 186, 40]\nclass = y[0]"] ;
321 -> 322 ;
323 [label="HighChol <= 0.013\nentropy = 0.433\nsamples = 90\nvalue = [0, 82, 8]\nclass = y[1]"] ;
322 -> 323 ;
324 [label="entropy = 0.0\nsamples = 6\nvalue = [0, 0, 6]\nclass = y[2]"] ;
323 -> 324 ;
325 [label="entropy = 0.162\nsamples = 84\nvalue = [0, 82, 2]\nclass = y[1]"] ;
323 -> 325 ;
326 [label="Veggies <= 0.001\nentropy = 1.094\nsamples = 471\nvalue = [335, 104, 32]\nclass = y[0]"] ;
322 -> 326 ;
327 [label="entropy = 0.555\nsamples = 371\nvalue = [335.0, 21.0, 15.0]\nclass = y[0]"] ;
326 -> 327 ;
328 [label="entropy = 0.658\nsamples = 100\nvalue = [0, 83, 17]\nclass = y[1]"] ;
326 -> 328 ;
329 [label="BMI <= 28.001\nentropy = 1.096\nsamples = 2827\nvalue = [2073, 452, 302]\nclass = y[0]"] ;
321 -> 329 ;
330 [label="Sex <= 0.998\nentropy = 0.977\nsamples = 2145\nvalue = [1675, 223, 247]\nclass = y[0]"] ;
329 -> 330 ;
331 [label="entropy = 0.983\nsamples = 132\nvalue = [0, 76, 56]\nclass = y[1]"] ;
330 -> 331 ;
332 [label="entropy = 0.819\nsamples = 2013\nvalue = [1675, 147, 191]\nclass = y[0]"] ;
330 -> 332 ;
333 [label="Smoker <= 0.991\nentropy = 1.275\nsamples = 682\nvalue = [398, 229, 55]\nclass = y[0]"] ;
329 -> 333 ;
334 [label="entropy = 1.309\nsamples = 413\nvalue = [184.0, 198.0, 31.0]\nclass = y[1]"] ;
333 -> 334 ;
335 [label="entropy = 0.933\nsamples = 269\nvalue = [214, 31, 24]\nclass = y[0]"] ;
333 -> 335 ;
336 [label="HighChol <= 0.0\nentropy = 1.353\nsamples = 24513\nvalue = [14375, 6883, 3255]\nclass = y[0]"] ;
278 -> 336 ;
337 [label="GenHlth <= 2.0\nentropy = 1.176\nsamples = 12117\nvalue = [8441, 2276, 1400]\nclass = y[0]"] ;
336 -> 337 ;
338 [label="Smoker <= 0.026\nentropy = 0.694\nsamples = 1229\nvalue = [0.0, 1000.0, 229.0]\nclass = y[1]"] ;
337 -> 338 ;
339 [label="BMI <= 31.702\nentropy = 0.565\nsamples = 799\nvalue = [0.0, 693.0, 106.0]\nclass = y[1]"] ;
338 -> 339 ;
340 [label="BMI <= 24.89\nentropy = 0.642\nsamples = 613\nvalue = [0, 513, 100]\nclass = y[1]"] ;
339 -> 340 ;
341 [label="entropy = 0.4\nsamples = 353\nvalue = [0, 325, 28]\nclass = y[1]"] ;
340 -> 341 ;
342 [label="entropy = 0.851\nsamples = 260\nvalue = [0, 188, 72]\nclass = y[1]"] ;
340 -> 342 ;
343 [label="Veggies <= 0.683\nentropy = 0.206\nsamples = 186\nvalue = [0, 180, 6]\nclass = y[1]"] ;
339 -> 343 ;
344 [label="entropy = 0.0\nsamples = 3\nvalue = [0, 0, 3]\nclass = y[2]"] ;
343 -> 344 ;
345 [label="entropy = 0.121\nsamples = 183\nvalue = [0, 180, 3]\nclass = y[1]"] ;
343 -> 345 ;
346 [label="Education <= 4.037\nentropy = 0.864\nsamples = 430\nvalue = [0.0, 307.0, 123.0]\nclass = y[1]"] ;
338 -> 346 ;
347 [label="NoDocbcCost <= 0.037\nentropy = 0.954\nsamples = 56\nvalue = [0, 21, 35]\nclass = y[2]"] ;
346 -> 347 ;
348 [label="entropy = 0.843\nsamples = 48\nvalue = [0, 13, 35]\nclass = y[2]"] ;
347 -> 348 ;
349 [label="entropy = 0.0\nsamples = 8\nvalue = [0, 8, 0]\nclass = y[1]"] ;
347 -> 349 ;
350 [label="Age <= 9.004\nentropy = 0.787\nsamples = 374\nvalue = [0, 286, 88]\nclass = y[1]"] ;
346 -> 350 ;
351 [label="entropy = 0.619\nsamples = 13\nvalue = [0, 2, 11]\nclass = y[2]"] ;
350 -> 351 ;
352 [label="entropy = 0.748\nsamples = 361\nvalue = [0, 284, 77]\nclass = y[1]"] ;
350 -> 352 ;
353 [label="PhysHlth <= 0.995\nentropy = 0.993\nsamples = 10888\nvalue = [8441, 1276, 1171]\nclass = y[0]"] ;
337 -> 353 ;
354 [label="BMI <= 25.01\nentropy = 1.074\nsamples = 8760\nvalue = [6521, 1224, 1015]\nclass = y[0]"] ;
353 -> 354 ;
355 [label="PhysHlth <= 0.005\nentropy = 0.781\nsamples = 3841\nvalue = [3230, 394, 217]\nclass = y[0]"] ;
354 -> 355 ;
356 [label="entropy = 0.739\nsamples = 3782\nvalue = [3230, 346, 206]\nclass = y[0]"] ;
355 -> 356 ;
357 [label="entropy = 0.694\nsamples = 59\nvalue = [0, 48, 11]\nclass = y[1]"] ;
355 -> 357 ;
358 [label="Fruits <= 0.002\nentropy = 1.247\nsamples = 4919\nvalue = [3291, 830, 798]\nclass = y[0]"] ;
354 -> 358 ;
359 [label="entropy = 0.904\nsamples = 1301\nvalue = [1040, 83, 178]\nclass = y[0]"] ;
358 -> 359 ;
360 [label="entropy = 1.332\nsamples = 3618\nvalue = [2251, 747, 620]\nclass = y[0]"] ;
358 -> 360 ;
361 [label="HeartDiseaseorAttack <= 0.007\nentropy = 0.541\nsamples = 2128\nvalue = [1920, 52, 156]\nclass = y[0]"] ;
353 -> 361 ;
362 [label="Age <= 10.049\nentropy = 0.41\nsamples = 1976\nvalue = [1835, 18, 123]\nclass = y[0]"] ;
361 -> 362 ;
363 [label="entropy = 0.296\nsamples = 1234\nvalue = [1176.0, 6.0, 52.0]\nclass = y[0]"] ;
362 -> 363 ;
364 [label="entropy = 0.572\nsamples = 742\nvalue = [659, 12, 71]\nclass = y[0]"] ;
362 -> 364 ;
365 [label="HeartDiseaseorAttack <= 0.992\nentropy = 1.431\nsamples = 152\nvalue = [85, 34, 33]\nclass = y[0]"] ;
361 -> 365 ;
366 [label="entropy = 0.966\nsamples = 46\nvalue = [0, 28, 18]\nclass = y[1]"] ;
365 -> 366 ;
367 [label="entropy = 0.889\nsamples = 106\nvalue = [85, 6, 15]\nclass = y[0]"] ;
365 -> 367 ;
368 [label="Sex <= 0.0\nentropy = 1.45\nsamples = 12396\nvalue = [5934, 4607, 1855]\nclass = y[0]"] ;
336 -> 368 ;
369 [label="HighChol <= 1.0\nentropy = 1.324\nsamples = 6089\nvalue = [3642.0, 1725.0, 722.0]\nclass = y[0]"] ;
368 -> 369 ;
370 [label="BMI <= 25.931\nentropy = 0.762\nsamples = 900\nvalue = [0, 701, 199]\nclass = y[1]"] ;
369 -> 370 ;
371 [label="BMI <= 23.001\nentropy = 0.519\nsamples = 549\nvalue = [0.0, 485.0, 64.0]\nclass = y[1]"] ;
370 -> 371 ;
372 [label="entropy = 0.686\nsamples = 312\nvalue = [0, 255, 57]\nclass = y[1]"] ;
371 -> 372 ;
373 [label="entropy = 0.192\nsamples = 237\nvalue = [0, 230, 7]\nclass = y[1]"] ;
371 -> 373 ;
374 [label="HvyAlcoholConsump <= 0.633\nentropy = 0.961\nsamples = 351\nvalue = [0, 216, 135]\nclass = y[1]"] ;
370 -> 374 ;
375 [label="entropy = 0.986\nsamples = 306\nvalue = [0, 174, 132]\nclass = y[1]"] ;
374 -> 375 ;
376 [label="entropy = 0.353\nsamples = 45\nvalue = [0, 42, 3]\nclass = y[1]"] ;
374 -> 376 ;
377 [label="GenHlth <= 1.999\nentropy = 1.154\nsamples = 5189\nvalue = [3642, 1024, 523]\nclass = y[0]"] ;
369 -> 377 ;
378 [label="PhysHlth <= 0.498\nentropy = 0.598\nsamples = 275\nvalue = [0, 235, 40]\nclass = y[1]"] ;
377 -> 378 ;
379 [label="entropy = 0.747\nsamples = 183\nvalue = [0, 144, 39]\nclass = y[1]"] ;
378 -> 379 ;
380 [label="entropy = 0.087\nsamples = 92\nvalue = [0, 91, 1]\nclass = y[1]"] ;
378 -> 380 ;
381 [label="Education <= 4.005\nentropy = 1.073\nsamples = 4914\nvalue = [3642.0, 789.0, 483.0]\nclass = y[0]"] ;
377 -> 381 ;
382 [label="entropy = 0.732\nsamples = 1058\nvalue = [903, 48, 107]\nclass = y[0]"] ;
381 -> 382 ;
383 [label="entropy = 1.135\nsamples = 3856\nvalue = [2739, 741, 376]\nclass = y[0]"] ;
381 -> 383 ;
384 [label="HighChol <= 0.999\nentropy = 1.492\nsamples = 6307\nvalue = [2292, 2882, 1133]\nclass = y[1]"] ;
368 -> 384 ;
385 [label="PhysHlth <= 12.5\nentropy = 0.67\nsamples = 1636\nvalue = [0, 1349, 287]\nclass = y[1]"] ;
384 -> 385 ;
386 [label="BMI <= 30.99\nentropy = 0.655\nsamples = 1623\nvalue = [0, 1349, 274]\nclass = y[1]"] ;
385 -> 386 ;
387 [label="entropy = 0.594\nsamples = 1337\nvalue = [0, 1145, 192]\nclass = y[1]"] ;
386 -> 387 ;
388 [label="entropy = 0.864\nsamples = 286\nvalue = [0, 204, 82]\nclass = y[1]"] ;
386 -> 388 ;
389 [label="entropy = 0.0\nsamples = 13\nvalue = [0, 0, 13]\nclass = y[2]"] ;
385 -> 389 ;
390 [label="Sex <= 1.0\nentropy = 1.478\nsamples = 4671\nvalue = [2292, 1533, 846]\nclass = y[0]"] ;
384 -> 390 ;
391 [label="PhysActivity <= 0.983\nentropy = 0.714\nsamples = 979\nvalue = [0, 787, 192]\nclass = y[1]"] ;
390 -> 391 ;
392 [label="entropy = 0.379\nsamples = 367\nvalue = [0, 340, 27]\nclass = y[1]"] ;
391 -> 392 ;
393 [label="entropy = 0.841\nsamples = 612\nvalue = [0, 447, 165]\nclass = y[1]"] ;
391 -> 393 ;
394 [label="Education <= 5.988\nentropy = 1.335\nsamples = 3692\nvalue = [2292, 746, 654]\nclass = y[0]"] ;
390 -> 394 ;
395 [label="entropy = 1.43\nsamples = 1699\nvalue = [907.0, 519.0, 273.0]\nclass = y[0]"] ;
394 -> 395 ;
396 [label="entropy = 1.178\nsamples = 1993\nvalue = [1385, 227, 381]\nclass = y[0]"] ;
394 -> 396 ;
397 [label="HighBP <= 1.0\nentropy = 1.571\nsamples = 75241\nvalue = [28085, 26849, 20307]\nclass = y[0]"] ;
1 -> 397 ;
398 [label="HighChol <= 0.0\nentropy = 0.841\nsamples = 15259\nvalue = [0, 11147, 4112]\nclass = y[1]"] ;
397 -> 398 ;
399 [label="GenHlth <= 1.948\nentropy = 0.92\nsamples = 4228\nvalue = [0, 2813, 1415]\nclass = y[1]"] ;
398 -> 399 ;
400 [label="MentHlth <= 2.002\nentropy = 0.819\nsamples = 1440\nvalue = [0, 1073, 367]\nclass = y[1]"] ;
399 -> 400 ;
401 [label="BMI <= 29.992\nentropy = 0.87\nsamples = 1197\nvalue = [0, 849, 348]\nclass = y[1]"] ;
400 -> 401 ;
402 [label="Education <= 3.996\nentropy = 0.949\nsamples = 661\nvalue = [0, 418, 243]\nclass = y[1]"] ;
401 -> 402 ;
403 [label="entropy = 0.0\nsamples = 23\nvalue = [0, 0, 23]\nclass = y[2]"] ;
402 -> 403 ;
404 [label="Smoker <= 0.95\nentropy = 0.929\nsamples = 638\nvalue = [0.0, 418.0, 220.0]\nclass = y[1]"] ;
402 -> 404 ;
405 [label="Age <= 6.957\nentropy = 0.978\nsamples = 445\nvalue = [0, 261, 184]\nclass = y[1]"] ;
404 -> 405 ;
406 [label="entropy = 0.0\nsamples = 22\nvalue = [0, 0, 22]\nclass = y[2]"] ;
405 -> 406 ;
407 [label="entropy = 0.96\nsamples = 423\nvalue = [0, 261, 162]\nclass = y[1]"] ;
405 -> 407 ;
408 [label="Education <= 5.021\nentropy = 0.694\nsamples = 193\nvalue = [0, 157, 36]\nclass = y[1]"] ;
404 -> 408 ;
409 [label="entropy = 0.996\nsamples = 39\nvalue = [0, 18, 21]\nclass = y[2]"] ;
408 -> 409 ;
410 [label="entropy = 0.461\nsamples = 154\nvalue = [0, 139, 15]\nclass = y[1]"] ;
408 -> 410 ;
411 [label="Veggies <= 0.229\nentropy = 0.714\nsamples = 536\nvalue = [0, 431, 105]\nclass = y[1]"] ;
401 -> 411 ;
412 [label="Income <= 7.787\nentropy = 0.942\nsamples = 39\nvalue = [0.0, 14.0, 25.0]\nclass = y[2]"] ;
411 -> 412 ;
413 [label="GenHlth <= 1.79\nentropy = 0.579\nsamples = 29\nvalue = [0, 4, 25]\nclass = y[2]"] ;
412 -> 413 ;
414 [label="entropy = 0.0\nsamples = 23\nvalue = [0, 0, 23]\nclass = y[2]"] ;
413 -> 414 ;
415 [label="entropy = 0.918\nsamples = 6\nvalue = [0, 4, 2]\nclass = y[1]"] ;
413 -> 415 ;
416 [label="entropy = 0.0\nsamples = 10\nvalue = [0, 10, 0]\nclass = y[1]"] ;
412 -> 416 ;
417 [label="BMI <= 37.992\nentropy = 0.637\nsamples = 497\nvalue = [0, 417, 80]\nclass = y[1]"] ;
411 -> 417 ;
418 [label="HeartDiseaseorAttack <= 0.097\nentropy = 0.519\nsamples = 438\nvalue = [0, 387, 51]\nclass = y[1]"] ;
417 -> 418 ;
419 [label="entropy = 0.495\nsamples = 434\nvalue = [0, 387, 47]\nclass = y[1]"] ;
418 -> 419 ;
420 [label="entropy = 0.0\nsamples = 4\nvalue = [0, 0, 4]\nclass = y[2]"] ;
418 -> 420 ;
421 [label="PhysActivity <= 0.977\nentropy = 1.0\nsamples = 59\nvalue = [0, 30, 29]\nclass = y[1]"] ;
417 -> 421 ;
422 [label="entropy = 0.884\nsamples = 43\nvalue = [0, 30, 13]\nclass = y[1]"] ;
421 -> 422 ;
423 [label="entropy = 0.0\nsamples = 16\nvalue = [0, 0, 16]\nclass = y[2]"] ;
421 -> 423 ;
424 [label="Age <= 6.976\nentropy = 0.396\nsamples = 243\nvalue = [0, 224, 19]\nclass = y[1]"] ;
400 -> 424 ;
425 [label="MentHlth <= 29.526\nentropy = 0.073\nsamples = 114\nvalue = [0, 113, 1]\nclass = y[1]"] ;
424 -> 425 ;
426 [label="entropy = 0.0\nsamples = 113\nvalue = [0, 113, 0]\nclass = y[1]"] ;
425 -> 426 ;
427 [label="entropy = 0.0\nsamples = 1\nvalue = [0, 0, 1]\nclass = y[2]"] ;
425 -> 427 ;
428 [label="MentHlth <= 4.969\nentropy = 0.583\nsamples = 129\nvalue = [0, 111, 18]\nclass = y[1]"] ;
424 -> 428 ;
429 [label="entropy = 0.0\nsamples = 56\nvalue = [0, 56, 0]\nclass = y[1]"] ;
428 -> 429 ;
430 [label="Veggies <= 0.985\nentropy = 0.806\nsamples = 73\nvalue = [0, 55, 18]\nclass = y[1]"] ;
428 -> 430 ;
431 [label="PhysActivity <= 0.5\nentropy = 0.232\nsamples = 53\nvalue = [0, 51, 2]\nclass = y[1]"] ;
430 -> 431 ;
432 [label="entropy = 0.0\nsamples = 1\nvalue = [0, 0, 1]\nclass = y[2]"] ;
431 -> 432 ;
433 [label="entropy = 0.137\nsamples = 52\nvalue = [0, 51, 1]\nclass = y[1]"] ;
431 -> 433 ;
434 [label="MentHlth <= 18.006\nentropy = 0.722\nsamples = 20\nvalue = [0, 4, 16]\nclass = y[2]"] ;
430 -> 434 ;
435 [label="entropy = 0.0\nsamples = 14\nvalue = [0, 0, 14]\nclass = y[2]"] ;
434 -> 435 ;
436 [label="entropy = 0.918\nsamples = 6\nvalue = [0, 4, 2]\nclass = y[1]"] ;
434 -> 436 ;
437 [label="Income <= 6.137\nentropy = 0.955\nsamples = 2788\nvalue = [0, 1740, 1048]\nclass = y[1]"] ;
399 -> 437 ;
438 [label="Age <= 11.307\nentropy = 0.998\nsamples = 993\nvalue = [0, 522, 471]\nclass = y[1]"] ;
437 -> 438 ;
439 [label="MentHlth <= 1.847\nentropy = 0.989\nsamples = 595\nvalue = [0, 261, 334]\nclass = y[2]"] ;
438 -> 439 ;
440 [label="PhysActivity <= 0.997\nentropy = 0.955\nsamples = 511\nvalue = [0, 192, 319]\nclass = y[2]"] ;
439 -> 440 ;
441 [label="BMI <= 21.048\nentropy = 0.991\nsamples = 211\nvalue = [0.0, 117.0, 94.0]\nclass = y[1]"] ;
440 -> 441 ;
442 [label="entropy = 0.414\nsamples = 36\nvalue = [0, 33, 3]\nclass = y[1]"] ;
441 -> 442 ;
443 [label="entropy = 0.999\nsamples = 175\nvalue = [0, 84, 91]\nclass = y[2]"] ;
441 -> 443 ;
444 [label="Age <= 9.954\nentropy = 0.811\nsamples = 300\nvalue = [0, 75, 225]\nclass = y[2]"] ;
440 -> 444 ;
445 [label="entropy = 0.95\nsamples = 179\nvalue = [0.0, 66.0, 113.0]\nclass = y[2]"] ;
444 -> 445 ;
446 [label="entropy = 0.382\nsamples = 121\nvalue = [0, 9, 112]\nclass = y[2]"] ;
444 -> 446 ;
447 [label="MentHlth <= 27.592\nentropy = 0.677\nsamples = 84\nvalue = [0, 69, 15]\nclass = y[1]"] ;
439 -> 447 ;
448 [label="Education <= 4.001\nentropy = 0.516\nsamples = 78\nvalue = [0, 69, 9]\nclass = y[1]"] ;
447 -> 448 ;
449 [label="entropy = 1.0\nsamples = 6\nvalue = [0, 3, 3]\nclass = y[1]"] ;
448 -> 449 ;
450 [label="entropy = 0.414\nsamples = 72\nvalue = [0, 66, 6]\nclass = y[1]"] ;
448 -> 450 ;
451 [label="entropy = 0.0\nsamples = 6\nvalue = [0, 0, 6]\nclass = y[2]"] ;
447 -> 451 ;
452 [label="Smoker <= 0.137\nentropy = 0.929\nsamples = 398\nvalue = [0, 261, 137]\nclass = y[1]"] ;
438 -> 452 ;
453 [label="HeartDiseaseorAttack <= 0.116\nentropy = 0.994\nsamples = 132\nvalue = [0, 60, 72]\nclass = y[2]"] ;
452 -> 453 ;
454 [label="Age <= 12.12\nentropy = 0.841\nsamples = 89\nvalue = [0, 24, 65]\nclass = y[2]"] ;
453 -> 454 ;
455 [label="entropy = 0.995\nsamples = 48\nvalue = [0, 22, 26]\nclass = y[2]"] ;
454 -> 455 ;
456 [label="entropy = 0.281\nsamples = 41\nvalue = [0, 2, 39]\nclass = y[2]"] ;
454 -> 456 ;
457 [label="Education <= 5.097\nentropy = 0.641\nsamples = 43\nvalue = [0.0, 36.0, 7.0]\nclass = y[1]"] ;
453 -> 457 ;
458 [label="entropy = 0.297\nsamples = 38\nvalue = [0, 36, 2]\nclass = y[1]"] ;
457 -> 458 ;
459 [label="entropy = 0.0\nsamples = 5\nvalue = [0, 0, 5]\nclass = y[2]"] ;
457 -> 459 ;
460 [label="BMI <= 29.952\nentropy = 0.802\nsamples = 266\nvalue = [0, 201, 65]\nclass = y[1]"] ;
452 -> 460 ;
461 [label="MentHlth <= 1.358\nentropy = 0.707\nsamples = 223\nvalue = [0, 180, 43]\nclass = y[1]"] ;
460 -> 461 ;
462 [label="entropy = 0.659\nsamples = 217\nvalue = [0, 180, 37]\nclass = y[1]"] ;
461 -> 462 ;
463 [label="entropy = 0.0\nsamples = 6\nvalue = [0, 0, 6]\nclass = y[2]"] ;
461 -> 463 ;
464 [label="DiffWalk <= 0.151\nentropy = 1.0\nsamples = 43\nvalue = [0, 21, 22]\nclass = y[2]"] ;
460 -> 464 ;
465 [label="entropy = 0.267\nsamples = 22\nvalue = [0, 1, 21]\nclass = y[2]"] ;
464 -> 465 ;
466 [label="entropy = 0.276\nsamples = 21\nvalue = [0, 20, 1]\nclass = y[1]"] ;
464 -> 466 ;
467 [label="Age <= 10.974\nentropy = 0.906\nsamples = 1795\nvalue = [0, 1218, 577]\nclass = y[1]"] ;
437 -> 467 ;
468 [label="MentHlth <= 3.425\nentropy = 0.863\nsamples = 1513\nvalue = [0.0, 1081.0, 432.0]\nclass = y[1]"] ;
467 -> 468 ;
469 [label="PhysActivity <= 0.004\nentropy = 0.887\nsamples = 1393\nvalue = [0, 968, 425]\nclass = y[1]"] ;
468 -> 469 ;
470 [label="BMI <= 34.0\nentropy = 0.918\nsamples = 45\nvalue = [0, 15, 30]\nclass = y[2]"] ;
469 -> 470 ;
471 [label="entropy = 0.0\nsamples = 22\nvalue = [0, 0, 22]\nclass = y[2]"] ;
470 -> 471 ;
472 [label="entropy = 0.932\nsamples = 23\nvalue = [0, 15, 8]\nclass = y[1]"] ;
470 -> 472 ;
473 [label="PhysHlth <= 0.549\nentropy = 0.873\nsamples = 1348\nvalue = [0, 953, 395]\nclass = y[1]"] ;
469 -> 473 ;
474 [label="entropy = 0.84\nsamples = 1181\nvalue = [0.0, 863.0, 318.0]\nclass = y[1]"] ;
473 -> 474 ;
475 [label="entropy = 0.996\nsamples = 167\nvalue = [0, 90, 77]\nclass = y[1]"] ;
473 -> 475 ;
476 [label="HvyAlcoholConsump <= 0.008\nentropy = 0.321\nsamples = 120\nvalue = [0, 113, 7]\nclass = y[1]"] ;
468 -> 476 ;
477 [label="HeartDiseaseorAttack <= 0.279\nentropy = 0.46\nsamples = 72\nvalue = [0, 65, 7]\nclass = y[1]"] ;
476 -> 477 ;
478 [label="entropy = 0.319\nsamples = 69\nvalue = [0, 65, 4]\nclass = y[1]"] ;
477 -> 478 ;
479 [label="entropy = 0.0\nsamples = 3\nvalue = [0, 0, 3]\nclass = y[2]"] ;
477 -> 479 ;
480 [label="entropy = 0.0\nsamples = 48\nvalue = [0, 48, 0]\nclass = y[1]"] ;
476 -> 480 ;
481 [label="Income <= 7.001\nentropy = 0.999\nsamples = 282\nvalue = [0, 137, 145]\nclass = y[2]"] ;
467 -> 481 ;
482 [label="PhysHlth <= 0.196\nentropy = 0.947\nsamples = 159\nvalue = [0.0, 101.0, 58.0]\nclass = y[1]"] ;
481 -> 482 ;
483 [label="BMI <= 25.826\nentropy = 0.853\nsamples = 140\nvalue = [0, 101, 39]\nclass = y[1]"] ;
482 -> 483 ;
484 [label="entropy = 0.0\nsamples = 11\nvalue = [0, 0, 11]\nclass = y[2]"] ;
483 -> 484 ;
485 [label="entropy = 0.755\nsamples = 129\nvalue = [0, 101, 28]\nclass = y[1]"] ;
483 -> 485 ;
486 [label="entropy = 0.0\nsamples = 19\nvalue = [0, 0, 19]\nclass = y[2]"] ;
482 -> 486 ;
487 [label="BMI <= 26.992\nentropy = 0.872\nsamples = 123\nvalue = [0, 36, 87]\nclass = y[2]"] ;
481 -> 487 ;
488 [label="BMI <= 23.018\nentropy = 0.981\nsamples = 55\nvalue = [0, 32, 23]\nclass = y[1]"] ;
487 -> 488 ;
489 [label="entropy = 0.0\nsamples = 13\nvalue = [0, 0, 13]\nclass = y[2]"] ;
488 -> 489 ;
490 [label="entropy = 0.792\nsamples = 42\nvalue = [0, 32, 10]\nclass = y[1]"] ;
488 -> 490 ;
491 [label="Income <= 7.604\nentropy = 0.323\nsamples = 68\nvalue = [0, 4, 64]\nclass = y[2]"] ;
487 -> 491 ;
492 [label="entropy = 0.779\nsamples = 13\nvalue = [0, 3, 10]\nclass = y[2]"] ;
491 -> 492 ;
493 [label="entropy = 0.131\nsamples = 55\nvalue = [0, 1, 54]\nclass = y[2]"] ;
491 -> 493 ;
494 [label="DiffWalk <= 0.585\nentropy = 0.802\nsamples = 11031\nvalue = [0, 8334, 2697]\nclass = y[1]"] ;
398 -> 494 ;
495 [label="HighChol <= 0.996\nentropy = 0.784\nsamples = 10450\nvalue = [0, 8012, 2438]\nclass = y[1]"] ;
494 -> 495 ;
496 [label="PhysHlth <= 0.796\nentropy = 0.68\nsamples = 4542\nvalue = [0, 3724, 818]\nclass = y[1]"] ;
495 -> 496 ;
497 [label="MentHlth <= 1.0\nentropy = 0.615\nsamples = 3510\nvalue = [0, 2976, 534]\nclass = y[1]"] ;
496 -> 497 ;
498 [label="Smoker <= 0.998\nentropy = 0.579\nsamples = 2808\nvalue = [0, 2421, 387]\nclass = y[1]"] ;
497 -> 498 ;
499 [label="AnyHealthcare <= 0.888\nentropy = 0.49\nsamples = 2068\nvalue = [0, 1847, 221]\nclass = y[1]"] ;
498 -> 499 ;
500 [label="entropy = 0.999\nsamples = 33\nvalue = [0, 16, 17]\nclass = y[2]"] ;
499 -> 500 ;
501 [label="entropy = 0.47\nsamples = 2035\nvalue = [0, 1831, 204]\nclass = y[1]"] ;
499 -> 501 ;
502 [label="BMI <= 32.981\nentropy = 0.768\nsamples = 740\nvalue = [0, 574, 166]\nclass = y[1]"] ;
498 -> 502 ;
503 [label="entropy = 0.694\nsamples = 628\nvalue = [0.0, 511.0, 117.0]\nclass = y[1]"] ;
502 -> 503 ;
504 [label="entropy = 0.989\nsamples = 112\nvalue = [0, 63, 49]\nclass = y[1]"] ;
502 -> 504 ;
505 [label="Income <= 7.98\nentropy = 0.74\nsamples = 702\nvalue = [0, 555, 147]\nclass = y[1]"] ;
497 -> 505 ;
506 [label="HvyAlcoholConsump <= 0.015\nentropy = 0.656\nsamples = 597\nvalue = [0, 496, 101]\nclass = y[1]"] ;
505 -> 506 ;
507 [label="entropy = 0.715\nsamples = 498\nvalue = [0, 400, 98]\nclass = y[1]"] ;
506 -> 507 ;
508 [label="entropy = 0.196\nsamples = 99\nvalue = [0, 96, 3]\nclass = y[1]"] ;
506 -> 508 ;
509 [label="DiffWalk <= 0.277\nentropy = 0.989\nsamples = 105\nvalue = [0, 59, 46]\nclass = y[1]"] ;
505 -> 509 ;
510 [label="entropy = 0.982\nsamples = 102\nvalue = [0.0, 59.0, 43.0]\nclass = y[1]"] ;
509 -> 510 ;
511 [label="entropy = 0.0\nsamples = 3\nvalue = [0, 0, 3]\nclass = y[2]"] ;
509 -> 511 ;
512 [label="PhysActivity <= 0.998\nentropy = 0.849\nsamples = 1032\nvalue = [0, 748, 284]\nclass = y[1]"] ;
496 -> 512 ;
513 [label="HvyAlcoholConsump <= 0.012\nentropy = 0.677\nsamples = 297\nvalue = [0, 244, 53]\nclass = y[1]"] ;
512 -> 513 ;
514 [label="BMI <= 41.862\nentropy = 0.731\nsamples = 259\nvalue = [0, 206, 53]\nclass = y[1]"] ;
513 -> 514 ;
515 [label="entropy = 0.768\nsamples = 236\nvalue = [0, 183, 53]\nclass = y[1]"] ;
514 -> 515 ;
516 [label="entropy = 0.0\nsamples = 23\nvalue = [0, 23, 0]\nclass = y[1]"] ;
514 -> 516 ;
517 [label="entropy = 0.0\nsamples = 38\nvalue = [0, 38, 0]\nclass = y[1]"] ;
513 -> 517 ;
518 [label="HeartDiseaseorAttack <= 0.001\nentropy = 0.898\nsamples = 735\nvalue = [0, 504, 231]\nclass = y[1]"] ;
512 -> 518 ;
519 [label="PhysHlth <= 14.991\nentropy = 0.861\nsamples = 689\nvalue = [0, 493, 196]\nclass = y[1]"] ;
518 -> 519 ;
520 [label="entropy = 0.822\nsamples = 658\nvalue = [0.0, 489.0, 169.0]\nclass = y[1]"] ;
519 -> 520 ;
521 [label="entropy = 0.555\nsamples = 31\nvalue = [0, 4, 27]\nclass = y[2]"] ;
519 -> 521 ;
522 [label="Sex <= 0.238\nentropy = 0.794\nsamples = 46\nvalue = [0, 11, 35]\nclass = y[2]"] ;
518 -> 522 ;
523 [label="entropy = 0.0\nsamples = 12\nvalue = [0, 0, 12]\nclass = y[2]"] ;
522 -> 523 ;
524 [label="entropy = 0.908\nsamples = 34\nvalue = [0, 11, 23]\nclass = y[2]"] ;
522 -> 524 ;
525 [label="Income <= 1.997\nentropy = 0.847\nsamples = 5908\nvalue = [0, 4288, 1620]\nclass = y[1]"] ;
495 -> 525 ;
526 [label="AnyHealthcare <= 0.755\nentropy = 0.064\nsamples = 132\nvalue = [0, 131, 1]\nclass = y[1]"] ;
525 -> 526 ;
527 [label="AnyHealthcare <= 0.678\nentropy = 0.25\nsamples = 24\nvalue = [0, 23, 1]\nclass = y[1]"] ;
526 -> 527 ;
528 [label="entropy = 0.0\nsamples = 23\nvalue = [0, 23, 0]\nclass = y[1]"] ;
527 -> 528 ;
529 [label="entropy = 0.0\nsamples = 1\nvalue = [0, 0, 1]\nclass = y[2]"] ;
527 -> 529 ;
530 [label="entropy = 0.0\nsamples = 108\nvalue = [0, 108, 0]\nclass = y[1]"] ;
526 -> 530 ;
531 [label="PhysActivity <= 0.98\nentropy = 0.856\nsamples = 5776\nvalue = [0, 4157, 1619]\nclass = y[1]"] ;
525 -> 531 ;
532 [label="Age <= 9.226\nentropy = 0.734\nsamples = 1737\nvalue = [0, 1379, 358]\nclass = y[1]"] ;
531 -> 532 ;
533 [label="BMI <= 27.207\nentropy = 0.852\nsamples = 635\nvalue = [0, 459, 176]\nclass = y[1]"] ;
532 -> 533 ;
534 [label="entropy = 0.999\nsamples = 157\nvalue = [0, 82, 75]\nclass = y[1]"] ;
533 -> 534 ;
535 [label="entropy = 0.744\nsamples = 478\nvalue = [0, 377, 101]\nclass = y[1]"] ;
533 -> 535 ;
536 [label="PhysActivity <= 0.0\nentropy = 0.646\nsamples = 1102\nvalue = [0, 920, 182]\nclass = y[1]"] ;
532 -> 536 ;
537 [label="entropy = 0.864\nsamples = 206\nvalue = [0, 147, 59]\nclass = y[1]"] ;
536 -> 537 ;
538 [label="entropy = 0.577\nsamples = 896\nvalue = [0.0, 773.0, 123.0]\nclass = y[1]"] ;
536 -> 538 ;
539 [label="GenHlth <= 2.0\nentropy = 0.896\nsamples = 4039\nvalue = [0, 2778, 1261]\nclass = y[1]"] ;
531 -> 539 ;
540 [label="PhysHlth <= 13.43\nentropy = 0.757\nsamples = 1195\nvalue = [0, 934, 261]\nclass = y[1]"] ;
539 -> 540 ;
541 [label="entropy = 0.735\nsamples = 1165\nvalue = [0, 924, 241]\nclass = y[1]"] ;
540 -> 541 ;
542 [label="entropy = 0.918\nsamples = 30\nvalue = [0, 10, 20]\nclass = y[2]"] ;
540 -> 542 ;
543 [label="Age <= 5.015\nentropy = 0.936\nsamples = 2844\nvalue = [0, 1844, 1000]\nclass = y[1]"] ;
539 -> 543 ;
544 [label="entropy = 0.187\nsamples = 35\nvalue = [0, 1, 34]\nclass = y[2]"] ;
543 -> 544 ;
545 [label="entropy = 0.928\nsamples = 2809\nvalue = [0, 1843, 966]\nclass = y[1]"] ;
543 -> 545 ;
546 [label="GenHlth <= 1.0\nentropy = 0.992\nsamples = 581\nvalue = [0, 322, 259]\nclass = y[1]"] ;
494 -> 546 ;
547 [label="entropy = 0.0\nsamples = 17\nvalue = [0, 0, 17]\nclass = y[2]"] ;
546 -> 547 ;
548 [label="BMI <= 22.68\nentropy = 0.985\nsamples = 564\nvalue = [0, 322, 242]\nclass = y[1]"] ;
546 -> 548 ;
549 [label="entropy = 0.0\nsamples = 22\nvalue = [0, 0, 22]\nclass = y[2]"] ;
548 -> 549 ;
550 [label="MentHlth <= 14.652\nentropy = 0.974\nsamples = 542\nvalue = [0.0, 322.0, 220.0]\nclass = y[1]"] ;
548 -> 550 ;
551 [label="Income <= 1.862\nentropy = 0.961\nsamples = 511\nvalue = [0, 315, 196]\nclass = y[1]"] ;
550 -> 551 ;
552 [label="entropy = 0.0\nsamples = 8\nvalue = [0, 0, 8]\nclass = y[2]"] ;
551 -> 552 ;
553 [label="BMI <= 29.987\nentropy = 0.954\nsamples = 503\nvalue = [0, 315, 188]\nclass = y[1]"] ;
551 -> 553 ;
554 [label="entropy = 0.823\nsamples = 272\nvalue = [0, 202, 70]\nclass = y[1]"] ;
553 -> 554 ;
555 [label="entropy = 1.0\nsamples = 231\nvalue = [0, 113, 118]\nclass = y[2]"] ;
553 -> 555 ;
556 [label="Fruits <= 0.007\nentropy = 0.771\nsamples = 31\nvalue = [0, 7, 24]\nclass = y[2]"] ;
550 -> 556 ;
557 [label="Veggies <= 0.701\nentropy = 0.544\nsamples = 8\nvalue = [0, 7, 1]\nclass = y[1]"] ;
556 -> 557 ;
558 [label="entropy = 0.0\nsamples = 7\nvalue = [0, 7, 0]\nclass = y[1]"] ;
557 -> 558 ;
559 [label="entropy = 0.0\nsamples = 1\nvalue = [0, 0, 1]\nclass = y[2]"] ;
557 -> 559 ;
560 [label="entropy = 0.0\nsamples = 23\nvalue = [0, 0, 23]\nclass = y[2]"] ;
556 -> 560 ;
561 [label="GenHlth <= 1.0\nentropy = 1.529\nsamples = 59982\nvalue = [28085.0, 15702.0, 16195.0]\nclass = y[0]"] ;
397 -> 561 ;
562 [label="HighChol <= 0.001\nentropy = 1.033\nsamples = 8713\nvalue = [6605.0, 835.0, 1273.0]\nclass = y[0]"] ;
561 -> 562 ;
563 [label="PhysActivity <= 0.992\nentropy = 0.67\nsamples = 4066\nvalue = [3550, 194, 322]\nclass = y[0]"] ;
562 -> 563 ;
564 [label="PhysActivity <= 0.008\nentropy = 1.102\nsamples = 642\nvalue = [468, 108, 66]\nclass = y[0]"] ;
563 -> 564 ;
565 [label="DiffWalk <= 0.01\nentropy = 0.678\nsamples = 538\nvalue = [468, 24, 46]\nclass = y[0]"] ;
564 -> 565 ;
566 [label="Income <= 6.5\nentropy = 0.561\nsamples = 469\nvalue = [423, 22, 24]\nclass = y[0]"] ;
565 -> 566 ;
567 [label="BMI <= 38.5\nentropy = 0.469\nsamples = 237\nvalue = [218, 5, 14]\nclass = y[0]"] ;
566 -> 567 ;
568 [label="entropy = 0.406\nsamples = 227\nvalue = [212, 4, 11]\nclass = y[0]"] ;
567 -> 568 ;
569 [label="entropy = 1.295\nsamples = 10\nvalue = [6, 1, 3]\nclass = y[0]"] ;
567 -> 569 ;
570 [label="Age <= 7.5\nentropy = 0.63\nsamples = 232\nvalue = [205, 17, 10]\nclass = y[0]"] ;
566 -> 570 ;
571 [label="entropy = 0.634\nsamples = 75\nvalue = [63, 12, 0]\nclass = y[0]"] ;
570 -> 571 ;
572 [label="entropy = 0.542\nsamples = 157\nvalue = [142, 5, 10]\nclass = y[0]"] ;
570 -> 572 ;
573 [label="PhysHlth <= 9.0\nentropy = 1.076\nsamples = 69\nvalue = [45.0, 2.0, 22.0]\nclass = y[0]"] ;
565 -> 573 ;
574 [label="HvyAlcoholConsump <= 0.01\nentropy = 0.962\nsamples = 49\nvalue = [37.0, 2.0, 10.0]\nclass = y[0]"] ;
573 -> 574 ;
575 [label="entropy = 0.844\nsamples = 43\nvalue = [35, 2, 6]\nclass = y[0]"] ;
574 -> 575 ;
576 [label="entropy = 0.918\nsamples = 6\nvalue = [2, 0, 4]\nclass = y[2]"] ;
574 -> 576 ;
577 [label="Income <= 2.5\nentropy = 0.971\nsamples = 20\nvalue = [8, 0, 12]\nclass = y[2]"] ;
573 -> 577 ;
578 [label="entropy = 0.0\nsamples = 4\nvalue = [0, 0, 4]\nclass = y[2]"] ;
577 -> 578 ;
579 [label="entropy = 1.0\nsamples = 16\nvalue = [8, 0, 8]\nclass = y[0]"] ;
577 -> 579 ;
580 [label="Smoker <= 0.008\nentropy = 0.706\nsamples = 104\nvalue = [0, 84, 20]\nclass = y[1]"] ;
564 -> 580 ;
581 [label="entropy = 0.0\nsamples = 8\nvalue = [0, 0, 8]\nclass = y[2]"] ;
580 -> 581 ;
582 [label="Age <= 10.981\nentropy = 0.544\nsamples = 96\nvalue = [0, 84, 12]\nclass = y[1]"] ;
580 -> 582 ;
583 [label="Income <= 7.5\nentropy = 0.216\nsamples = 87\nvalue = [0, 84, 3]\nclass = y[1]"] ;
582 -> 583 ;
584 [label="entropy = 0.0\nsamples = 84\nvalue = [0, 84, 0]\nclass = y[1]"] ;
583 -> 584 ;
585 [label="entropy = 0.0\nsamples = 3\nvalue = [0, 0, 3]\nclass = y[2]"] ;
583 -> 585 ;
586 [label="entropy = 0.0\nsamples = 9\nvalue = [0, 0, 9]\nclass = y[2]"] ;
582 -> 586 ;
587 [label="Income <= 5.772\nentropy = 0.55\nsamples = 3424\nvalue = [3082.0, 86.0, 256.0]\nclass = y[0]"] ;
563 -> 587 ;
588 [label="Age <= 9.5\nentropy = 0.864\nsamples = 744\nvalue = [609, 62, 73]\nclass = y[0]"] ;
587 -> 588 ;
589 [label="BMI <= 34.019\nentropy = 0.507\nsamples = 289\nvalue = [261.0, 3.0, 25.0]\nclass = y[0]"] ;
588 -> 589 ;
590 [label="Income <= 5.159\nentropy = 0.318\nsamples = 241\nvalue = [229, 2, 10]\nclass = y[0]"] ;
589 -> 590 ;
591 [label="entropy = 0.281\nsamples = 239\nvalue = [229.0, 2.0, 8.0]\nclass = y[0]"] ;
590 -> 591 ;
592 [label="entropy = 0.0\nsamples = 2\nvalue = [0, 0, 2]\nclass = y[2]"] ;
590 -> 592 ;
593 [label="Age <= 3.5\nentropy = 1.031\nsamples = 48\nvalue = [32, 1, 15]\nclass = y[0]"] ;
589 -> 593 ;
594 [label="entropy = 0.0\nsamples = 9\nvalue = [9, 0, 0]\nclass = y[0]"] ;
593 -> 594 ;
595 [label="entropy = 1.115\nsamples = 39\nvalue = [23, 1, 15]\nclass = y[0]"] ;
593 -> 595 ;
596 [label="Veggies <= 0.986\nentropy = 1.02\nsamples = 455\nvalue = [348.0, 59.0, 48.0]\nclass = y[0]"] ;
588 -> 596 ;
597 [label="DiffWalk <= 0.042\nentropy = 1.439\nsamples = 139\nvalue = [72, 45, 22]\nclass = y[0]"] ;
596 -> 597 ;
598 [label="entropy = 1.36\nsamples = 123\nvalue = [65, 45, 13]\nclass = y[0]"] ;
597 -> 598 ;
599 [label="entropy = 0.989\nsamples = 16\nvalue = [7, 0, 9]\nclass = y[2]"] ;
597 -> 599 ;
600 [label="DiffWalk <= 0.5\nentropy = 0.666\nsamples = 316\nvalue = [276, 14, 26]\nclass = y[0]"] ;
596 -> 600 ;
601 [label="entropy = 0.606\nsamples = 284\nvalue = [253.0, 14.0, 17.0]\nclass = y[0]"] ;
600 -> 601 ;
602 [label="entropy = 0.857\nsamples = 32\nvalue = [23, 0, 9]\nclass = y[0]"] ;
600 -> 602 ;
603 [label="Age <= 9.001\nentropy = 0.432\nsamples = 2680\nvalue = [2473, 24, 183]\nclass = y[0]"] ;
587 -> 603 ;
604 [label="Age <= 6.5\nentropy = 0.266\nsamples = 1539\nvalue = [1477, 8, 54]\nclass = y[0]"] ;
603 -> 604 ;
605 [label="PhysHlth <= 12.0\nentropy = 0.124\nsamples = 481\nvalue = [474, 3, 4]\nclass = y[0]"] ;
604 -> 605 ;
606 [label="entropy = 0.095\nsamples = 474\nvalue = [469.0, 2.0, 3.0]\nclass = y[0]"] ;
605 -> 606 ;
607 [label="entropy = 1.149\nsamples = 7\nvalue = [5, 1, 1]\nclass = y[0]"] ;
605 -> 607 ;
608 [label="Sex <= 0.188\nentropy = 0.318\nsamples = 1058\nvalue = [1003, 5, 50]\nclass = y[0]"] ;
604 -> 608 ;
609 [label="entropy = 0.215\nsamples = 514\nvalue = [499, 4, 11]\nclass = y[0]"] ;
608 -> 609 ;
610 [label="entropy = 0.391\nsamples = 544\nvalue = [504, 1, 39]\nclass = y[0]"] ;
608 -> 610 ;
611 [label="Income <= 7.999\nentropy = 0.613\nsamples = 1141\nvalue = [996.0, 16.0, 129.0]\nclass = y[0]"] ;
603 -> 611 ;
612 [label="Income <= 7.016\nentropy = 0.773\nsamples = 584\nvalue = [482.0, 15.0, 87.0]\nclass = y[0]"] ;
611 -> 612 ;
613 [label="entropy = 0.626\nsamples = 559\nvalue = [482, 5, 72]\nclass = y[0]"] ;
612 -> 613 ;
614 [label="entropy = 0.971\nsamples = 25\nvalue = [0, 10, 15]\nclass = y[2]"] ;
612 -> 614 ;
615 [label="BMI <= 25.5\nentropy = 0.405\nsamples = 557\nvalue = [514, 1, 42]\nclass = y[0]"] ;
611 -> 615 ;
616 [label="entropy = 0.159\nsamples = 258\nvalue = [252, 0, 6]\nclass = y[0]"] ;
615 -> 616 ;
617 [label="entropy = 0.562\nsamples = 299\nvalue = [262, 1, 36]\nclass = y[0]"] ;
615 -> 617 ;
618 [label="BMI <= 26.001\nentropy = 1.26\nsamples = 4647\nvalue = [3055, 641, 951]\nclass = y[0]"] ;
562 -> 618 ;
619 [label="HighChol <= 0.993\nentropy = 0.852\nsamples = 1880\nvalue = [1527, 92, 261]\nclass = y[0]"] ;
618 -> 619 ;
620 [label="HeartDiseaseorAttack <= 0.011\nentropy = 0.872\nsamples = 82\nvalue = [0, 24, 58]\nclass = y[2]"] ;
619 -> 620 ;
621 [label="Veggies <= 0.793\nentropy = 0.514\nsamples = 61\nvalue = [0, 7, 54]\nclass = y[2]"] ;
620 -> 621 ;
622 [label="BMI <= 21.992\nentropy = 1.0\nsamples = 14\nvalue = [0, 7, 7]\nclass = y[1]"] ;
621 -> 622 ;
623 [label="entropy = 0.0\nsamples = 7\nvalue = [0, 7, 0]\nclass = y[1]"] ;
622 -> 623 ;
624 [label="entropy = 0.0\nsamples = 7\nvalue = [0, 0, 7]\nclass = y[2]"] ;
622 -> 624 ;
625 [label="entropy = 0.0\nsamples = 47\nvalue = [0, 0, 47]\nclass = y[2]"] ;
621 -> 625 ;
626 [label="Education <= 4.5\nentropy = 0.702\nsamples = 21\nvalue = [0, 17, 4]\nclass = y[1]"] ;
620 -> 626 ;
627 [label="entropy = 0.0\nsamples = 17\nvalue = [0, 17, 0]\nclass = y[1]"] ;
626 -> 627 ;
628 [label="entropy = 0.0\nsamples = 4\nvalue = [0, 0, 4]\nclass = y[2]"] ;
626 -> 628 ;
629 [label="Age <= 10.075\nentropy = 0.734\nsamples = 1798\nvalue = [1527, 68, 203]\nclass = y[0]"] ;
619 -> 629 ;
630 [label="Veggies <= 0.931\nentropy = 0.48\nsamples = 956\nvalue = [870, 9, 77]\nclass = y[0]"] ;
629 -> 630 ;
631 [label="Age <= 5.5\nentropy = 0.824\nsamples = 132\nvalue = [104, 2, 26]\nclass = y[0]"] ;
630 -> 631 ;
632 [label="entropy = 0.997\nsamples = 15\nvalue = [7, 0, 8]\nclass = y[2]"] ;
631 -> 632 ;
633 [label="entropy = 0.74\nsamples = 117\nvalue = [97, 2, 18]\nclass = y[0]"] ;
631 -> 633 ;
634 [label="MentHlth <= 29.5\nentropy = 0.405\nsamples = 824\nvalue = [766, 7, 51]\nclass = y[0]"] ;
630 -> 634 ;
635 [label="entropy = 0.383\nsamples = 802\nvalue = [750.0, 7.0, 45.0]\nclass = y[0]"] ;
634 -> 635 ;
636 [label="entropy = 0.845\nsamples = 22\nvalue = [16, 0, 6]\nclass = y[0]"] ;
634 -> 636 ;
637 [label="Age <= 10.913\nentropy = 0.958\nsamples = 842\nvalue = [657, 59, 126]\nclass = y[0]"] ;
629 -> 637 ;
638 [label="entropy = 0.0\nsamples = 18\nvalue = [0, 0, 18]\nclass = y[2]"] ;
637 -> 638 ;
639 [label="Smoker <= 0.052\nentropy = 0.917\nsamples = 824\nvalue = [657, 59, 108]\nclass = y[0]"] ;
637 -> 639 ;
640 [label="entropy = 1.003\nsamples = 441\nvalue = [340, 57, 44]\nclass = y[0]"] ;
639 -> 640 ;
641 [label="entropy = 0.697\nsamples = 383\nvalue = [317, 2, 64]\nclass = y[0]"] ;
639 -> 641 ;
642 [label="BMI <= 31.046\nentropy = 1.436\nsamples = 2767\nvalue = [1528, 549, 690]\nclass = y[0]"] ;
618 -> 642 ;
643 [label="HighChol <= 0.998\nentropy = 1.433\nsamples = 2088\nvalue = [1156, 524, 408]\nclass = y[0]"] ;
642 -> 643 ;
644 [label="Age <= 11.91\nentropy = 0.908\nsamples = 226\nvalue = [0, 153, 73]\nclass = y[1]"] ;
643 -> 644 ;
645 [label="Veggies <= 0.852\nentropy = 0.773\nsamples = 198\nvalue = [0, 153, 45]\nclass = y[1]"] ;
644 -> 645 ;
646 [label="entropy = 0.0\nsamples = 11\nvalue = [0, 0, 11]\nclass = y[2]"] ;
645 -> 646 ;
647 [label="entropy = 0.684\nsamples = 187\nvalue = [0, 153, 34]\nclass = y[1]"] ;
645 -> 647 ;
648 [label="entropy = 0.0\nsamples = 28\nvalue = [0, 0, 28]\nclass = y[2]"] ;
644 -> 648 ;
649 [label="Age <= 8.262\nentropy = 1.336\nsamples = 1862\nvalue = [1156, 371, 335]\nclass = y[0]"] ;
643 -> 649 ;
650 [label="MentHlth <= 0.5\nentropy = 0.363\nsamples = 369\nvalue = [346, 2, 21]\nclass = y[0]"] ;
649 -> 650 ;
651 [label="entropy = 0.274\nsamples = 270\nvalue = [259, 2, 9]\nclass = y[0]"] ;
650 -> 651 ;
652 [label="entropy = 0.533\nsamples = 99\nvalue = [87, 0, 12]\nclass = y[0]"] ;
650 -> 652 ;
653 [label="BMI <= 26.998\nentropy = 1.45\nsamples = 1493\nvalue = [810, 369, 314]\nclass = y[0]"] ;
649 -> 653 ;
654 [label="entropy = 0.986\nsamples = 65\nvalue = [0, 37, 28]\nclass = y[1]"] ;
653 -> 654 ;
655 [label="entropy = 1.418\nsamples = 1428\nvalue = [810, 332, 286]\nclass = y[0]"] ;
653 -> 655 ;
656 [label="Smoker <= 0.003\nentropy = 1.177\nsamples = 679\nvalue = [372.0, 25.0, 282.0]\nclass = y[0]"] ;
642 -> 656 ;
657 [label="HighChol <= 0.999\nentropy = 1.046\nsamples = 326\nvalue = [220, 9, 97]\nclass = y[0]"] ;
656 -> 657 ;
658 [label="entropy = 0.0\nsamples = 16\nvalue = [0, 0, 16]\nclass = y[2]"] ;
657 -> 658 ;
659 [label="DiffWalk <= 0.116\nentropy = 1.005\nsamples = 310\nvalue = [220, 9, 81]\nclass = y[0]"] ;
657 -> 659 ;
660 [label="entropy = 0.928\nsamples = 260\nvalue = [196, 7, 57]\nclass = y[0]"] ;
659 -> 660 ;
661 [label="entropy = 1.202\nsamples = 50\nvalue = [24, 2, 24]\nclass = y[0]"] ;
659 -> 661 ;
662 [label="Smoker <= 0.999\nentropy = 1.214\nsamples = 353\nvalue = [152, 16, 185]\nclass = y[2]"] ;
656 -> 662 ;
663 [label="BMI <= 34.006\nentropy = 0.702\nsamples = 63\nvalue = [0, 12, 51]\nclass = y[2]"] ;
662 -> 663 ;
664 [label="entropy = 0.0\nsamples = 31\nvalue = [0, 0, 31]\nclass = y[2]"] ;
663 -> 664 ;
665 [label="entropy = 0.954\nsamples = 32\nvalue = [0, 12, 20]\nclass = y[2]"] ;
663 -> 665 ;
666 [label="Income <= 6.962\nentropy = 1.088\nsamples = 290\nvalue = [152, 4, 134]\nclass = y[0]"] ;
662 -> 666 ;
667 [label="entropy = 1.071\nsamples = 162\nvalue = [60.0, 3.0, 99.0]\nclass = y[2]"] ;
666 -> 667 ;
668 [label="entropy = 0.909\nsamples = 128\nvalue = [92, 1, 35]\nclass = y[0]"] ;
666 -> 668 ;
669 [label="HvyAlcoholConsump <= 0.999\nentropy = 1.562\nsamples = 51269\nvalue = [21480.0, 14867.0, 14922.0]\nclass = y[0]"] ;
561 -> 669 ;
670 [label="GenHlth <= 2.0\nentropy = 1.57\nsamples = 49450\nvalue = [19938.0, 14729.0, 14783.0]\nclass = y[0]"] ;
669 -> 670 ;
671 [label="BMI <= 31.986\nentropy = 0.957\nsamples = 5772\nvalue = [0, 3586, 2186]\nclass = y[1]"] ;
670 -> 671 ;
672 [label="MentHlth <= 29.945\nentropy = 0.911\nsamples = 4133\nvalue = [0, 2783, 1350]\nclass = y[1]"] ;
671 -> 672 ;
673 [label="DiffWalk <= 0.894\nentropy = 0.904\nsamples = 4092\nvalue = [0, 2783, 1309]\nclass = y[1]"] ;
672 -> 673 ;
674 [label="Education <= 3.004\nentropy = 0.888\nsamples = 3963\nvalue = [0, 2753, 1210]\nclass = y[1]"] ;
673 -> 674 ;
675 [label="entropy = 0.76\nsamples = 50\nvalue = [0, 11, 39]\nclass = y[2]"] ;
674 -> 675 ;
676 [label="entropy = 0.88\nsamples = 3913\nvalue = [0, 2742, 1171]\nclass = y[1]"] ;
674 -> 676 ;
677 [label="Education <= 5.591\nentropy = 0.782\nsamples = 129\nvalue = [0, 30, 99]\nclass = y[2]"] ;
673 -> 677 ;
678 [label="entropy = 0.5\nsamples = 91\nvalue = [0, 10, 81]\nclass = y[2]"] ;
677 -> 678 ;
679 [label="entropy = 0.998\nsamples = 38\nvalue = [0, 20, 18]\nclass = y[1]"] ;
677 -> 679 ;
680 [label="entropy = 0.0\nsamples = 41\nvalue = [0, 0, 41]\nclass = y[2]"] ;
672 -> 680 ;
681 [label="Fruits <= 1.0\nentropy = 1.0\nsamples = 1639\nvalue = [0.0, 803.0, 836.0]\nclass = y[2]"] ;
671 -> 681 ;
682 [label="PhysHlth <= 4.988\nentropy = 0.967\nsamples = 1000\nvalue = [0, 607, 393]\nclass = y[1]"] ;
681 -> 682 ;
683 [label="PhysActivity <= 0.736\nentropy = 0.935\nsamples = 916\nvalue = [0, 594, 322]\nclass = y[1]"] ;
682 -> 683 ;
684 [label="entropy = 0.751\nsamples = 433\nvalue = [0, 340, 93]\nclass = y[1]"] ;
683 -> 684 ;
685 [label="entropy = 0.998\nsamples = 483\nvalue = [0.0, 254.0, 229.0]\nclass = y[1]"] ;
683 -> 685 ;
686 [label="Age <= 6.988\nentropy = 0.622\nsamples = 84\nvalue = [0, 13, 71]\nclass = y[2]"] ;
682 -> 686 ;
687 [label="entropy = 0.934\nsamples = 20\nvalue = [0, 13, 7]\nclass = y[1]"] ;
686 -> 687 ;
688 [label="entropy = 0.0\nsamples = 64\nvalue = [0, 0, 64]\nclass = y[2]"] ;
686 -> 688 ;
689 [label="Education <= 4.004\nentropy = 0.889\nsamples = 639\nvalue = [0, 196, 443]\nclass = y[2]"] ;
681 -> 689 ;
690 [label="entropy = 0.0\nsamples = 106\nvalue = [0, 0, 106]\nclass = y[2]"] ;
689 -> 690 ;
691 [label="PhysActivity <= 0.004\nentropy = 0.949\nsamples = 533\nvalue = [0, 196, 337]\nclass = y[2]"] ;
689 -> 691 ;
692 [label="entropy = 0.0\nsamples = 51\nvalue = [0, 0, 51]\nclass = y[2]"] ;
691 -> 692 ;
693 [label="entropy = 0.975\nsamples = 482\nvalue = [0, 196, 286]\nclass = y[2]"] ;
691 -> 693 ;
694 [label="Age <= 8.0\nentropy = 1.537\nsamples = 43678\nvalue = [19938, 11143, 12597]\nclass = y[0]"] ;
670 -> 694 ;
695 [label="BMI <= 26.003\nentropy = 1.187\nsamples = 10329\nvalue = [7140, 1203, 1986]\nclass = y[0]"] ;
694 -> 695 ;
696 [label="Education <= 3.993\nentropy = 0.699\nsamples = 2396\nvalue = [2049, 67, 280]\nclass = y[0]"] ;
695 -> 696 ;
697 [label="PhysActivity <= 0.5\nentropy = 1.299\nsamples = 62\nvalue = [34, 23, 5]\nclass = y[0]"] ;
696 -> 697 ;
698 [label="entropy = 0.946\nsamples = 33\nvalue = [12, 21, 0]\nclass = y[1]"] ;
697 -> 698 ;
699 [label="entropy = 1.006\nsamples = 29\nvalue = [22, 2, 5]\nclass = y[0]"] ;
697 -> 699 ;
700 [label="HighChol <= 0.024\nentropy = 0.655\nsamples = 2334\nvalue = [2015, 44, 275]\nclass = y[0]"] ;
696 -> 700 ;
701 [label="entropy = 0.347\nsamples = 1303\nvalue = [1233, 19, 51]\nclass = y[0]"] ;
700 -> 701 ;
702 [label="entropy = 0.911\nsamples = 1031\nvalue = [782, 25, 224]\nclass = y[0]"] ;
700 -> 702 ;
703 [label="Sex <= 0.999\nentropy = 1.289\nsamples = 7933\nvalue = [5091, 1136, 1706]\nclass = y[0]"] ;
695 -> 703 ;
704 [label="Sex <= 0.0\nentropy = 1.41\nsamples = 3754\nvalue = [2153, 755, 846]\nclass = y[0]"] ;
703 -> 704 ;
705 [label="entropy = 1.191\nsamples = 3105\nvalue = [2153.0, 404.0, 548.0]\nclass = y[0]"] ;
704 -> 705 ;
706 [label="entropy = 0.995\nsamples = 649\nvalue = [0, 351, 298]\nclass = y[1]"] ;
704 -> 706 ;
707 [label="Veggies <= 0.987\nentropy = 1.142\nsamples = 4179\nvalue = [2938, 381, 860]\nclass = y[0]"] ;
703 -> 707 ;
708 [label="entropy = 1.372\nsamples = 1019\nvalue = [607, 234, 178]\nclass = y[0]"] ;
707 -> 708 ;
709 [label="entropy = 1.007\nsamples = 3160\nvalue = [2331, 147, 682]\nclass = y[0]"] ;
707 -> 709 ;
710 [label="HighChol <= 0.0\nentropy = 1.576\nsamples = 33349\nvalue = [12798, 9940, 10611]\nclass = y[0]"] ;
694 -> 710 ;
711 [label="Sex <= 0.003\nentropy = 1.408\nsamples = 9536\nvalue = [5390, 1637, 2509]\nclass = y[0]"] ;
710 -> 711 ;
712 [label="Education <= 5.998\nentropy = 1.16\nsamples = 4491\nvalue = [3119, 424, 948]\nclass = y[0]"] ;
711 -> 712 ;
713 [label="entropy = 1.252\nsamples = 2937\nvalue = [1902, 323, 712]\nclass = y[0]"] ;
712 -> 713 ;
714 [label="entropy = 0.945\nsamples = 1554\nvalue = [1217.0, 101.0, 236.0]\nclass = y[0]"] ;
712 -> 714 ;
715 [label="Sex <= 0.999\nentropy = 1.536\nsamples = 5045\nvalue = [2271, 1213, 1561]\nclass = y[0]"] ;
711 -> 715 ;
716 [label="entropy = 0.981\nsamples = 748\nvalue = [0, 434, 314]\nclass = y[1]"] ;
715 -> 716 ;
717 [label="entropy = 1.451\nsamples = 4297\nvalue = [2271, 779, 1247]\nclass = y[0]"] ;
715 -> 717 ;
718 [label="HighChol <= 1.0\nentropy = 1.583\nsamples = 23813\nvalue = [7408.0, 8303.0, 8102.0]\nclass = y[1]"] ;
710 -> 718 ;
719 [label="MentHlth <= 12.0\nentropy = 0.977\nsamples = 4065\nvalue = [0, 2395, 1670]\nclass = y[1]"] ;
718 -> 719 ;
720 [label="entropy = 0.973\nsamples = 4015\nvalue = [0, 2395, 1620]\nclass = y[1]"] ;
719 -> 720 ;
721 [label="entropy = 0.0\nsamples = 50\nvalue = [0, 0, 50]\nclass = y[2]"] ;
719 -> 721 ;
722 [label="BMI <= 29.003\nentropy = 1.579\nsamples = 19748\nvalue = [7408, 5908, 6432]\nclass = y[0]"] ;
718 -> 722 ;
723 [label="entropy = 1.533\nsamples = 11139\nvalue = [5146.0, 2853.0, 3140.0]\nclass = y[0]"] ;
722 -> 723 ;
724 [label="entropy = 1.567\nsamples = 8609\nvalue = [2262, 3055, 3292]\nclass = y[2]"] ;
722 -> 724 ;
725 [label="Stroke <= 0.001\nentropy = 0.768\nsamples = 1819\nvalue = [1542, 138, 139]\nclass = y[0]"] ;
669 -> 725 ;
726 [label="GenHlth <= 2.0\nentropy = 0.608\nsamples = 1701\nvalue = [1509, 58, 134]\nclass = y[0]"] ;
725 -> 726 ;
727 [label="HighChol <= 0.958\nentropy = 0.503\nsamples = 36\nvalue = [0, 32, 4]\nclass = y[1]"] ;
726 -> 727 ;
728 [label="entropy = 0.0\nsamples = 32\nvalue = [0, 32, 0]\nclass = y[1]"] ;
727 -> 728 ;
729 [label="entropy = 0.0\nsamples = 4\nvalue = [0, 0, 4]\nclass = y[2]"] ;
727 -> 729 ;
730 [label="HighChol <= 0.059\nentropy = 0.51\nsamples = 1665\nvalue = [1509, 26, 130]\nclass = y[0]"] ;
726 -> 730 ;
731 [label="BMI <= 29.5\nentropy = 0.326\nsamples = 759\nvalue = [721.0, 9.0, 29.0]\nclass = y[0]"] ;
730 -> 731 ;
732 [label="HeartDiseaseorAttack <= 0.5\nentropy = 0.219\nsamples = 549\nvalue = [533.0, 7.0, 9.0]\nclass = y[0]"] ;
731 -> 732 ;
733 [label="entropy = 0.178\nsamples = 532\nvalue = [520, 7, 5]\nclass = y[0]"] ;
732 -> 733 ;
734 [label="entropy = 0.787\nsamples = 17\nvalue = [13, 0, 4]\nclass = y[0]"] ;
732 -> 734 ;
735 [label="Sex <= 0.066\nentropy = 0.53\nsamples = 210\nvalue = [188, 2, 20]\nclass = y[0]"] ;
731 -> 735 ;
736 [label="entropy = 0.398\nsamples = 95\nvalue = [89, 2, 4]\nclass = y[0]"] ;
735 -> 736 ;
737 [label="entropy = 0.582\nsamples = 115\nvalue = [99, 0, 16]\nclass = y[0]"] ;
735 -> 737 ;
738 [label="Sex <= 0.055\nentropy = 0.636\nsamples = 906\nvalue = [788, 17, 101]\nclass = y[0]"] ;
730 -> 738 ;
739 [label="BMI <= 25.5\nentropy = 0.412\nsamples = 415\nvalue = [386, 5, 24]\nclass = y[0]"] ;
738 -> 739 ;
740 [label="entropy = 0.141\nsamples = 175\nvalue = [172, 1, 2]\nclass = y[0]"] ;
739 -> 740 ;
741 [label="entropy = 0.562\nsamples = 240\nvalue = [214, 4, 22]\nclass = y[0]"] ;
739 -> 741 ;
742 [label="HighChol <= 0.948\nentropy = 0.786\nsamples = 491\nvalue = [402, 12, 77]\nclass = y[0]"] ;
738 -> 742 ;
743 [label="entropy = 0.0\nsamples = 10\nvalue = [0, 0, 10]\nclass = y[2]"] ;
742 -> 743 ;
744 [label="entropy = 0.745\nsamples = 481\nvalue = [402, 12, 67]\nclass = y[0]"] ;
742 -> 744 ;
745 [label="Stroke <= 0.997\nentropy = 1.087\nsamples = 118\nvalue = [33, 80, 5]\nclass = y[1]"] ;
725 -> 745 ;
746 [label="BMI <= 29.808\nentropy = 0.099\nsamples = 78\nvalue = [0, 77, 1]\nclass = y[1]"] ;
745 -> 746 ;
747 [label="entropy = 0.0\nsamples = 76\nvalue = [0, 76, 0]\nclass = y[1]"] ;
746 -> 747 ;
748 [label="Fruits <= 0.129\nentropy = 1.0\nsamples = 2\nvalue = [0, 1, 1]\nclass = y[1]"] ;
746 -> 748 ;
749 [label="entropy = 0.0\nsamples = 1\nvalue = [0, 1, 0]\nclass = y[1]"] ;
748 -> 749 ;
750 [label="entropy = 0.0\nsamples = 1\nvalue = [0, 0, 1]\nclass = y[2]"] ;
748 -> 750 ;
751 [label="BMI <= 28.5\nentropy = 0.841\nsamples = 40\nvalue = [33, 3, 4]\nclass = y[0]"] ;
745 -> 751 ;
752 [label="MentHlth <= 1.5\nentropy = 0.454\nsamples = 21\nvalue = [19, 2, 0]\nclass = y[0]"] ;
751 -> 752 ;
753 [label="entropy = 0.0\nsamples = 13\nvalue = [13, 0, 0]\nclass = y[0]"] ;
752 -> 753 ;
754 [label="MentHlth <= 4.5\nentropy = 0.811\nsamples = 8\nvalue = [6, 2, 0]\nclass = y[0]"] ;
752 -> 754 ;
755 [label="entropy = 0.918\nsamples = 3\nvalue = [1, 2, 0]\nclass = y[1]"] ;
754 -> 755 ;
756 [label="entropy = 0.0\nsamples = 5\nvalue = [5, 0, 0]\nclass = y[0]"] ;
754 -> 756 ;
757 [label="HeartDiseaseorAttack <= 0.5\nentropy = 1.021\nsamples = 19\nvalue = [14, 1, 4]\nclass = y[0]"] ;
751 -> 757 ;
758 [label="Age <= 8.5\nentropy = 0.834\nsamples = 17\nvalue = [14, 1, 2]\nclass = y[0]"] ;
757 -> 758 ;
759 [label="entropy = 0.971\nsamples = 5\nvalue = [3, 0, 2]\nclass = y[0]"] ;
758 -> 759 ;
760 [label="entropy = 0.414\nsamples = 12\nvalue = [11, 1, 0]\nclass = y[0]"] ;
758 -> 760 ;
761 [label="entropy = 0.0\nsamples = 2\nvalue = [0, 0, 2]\nclass = y[2]"] ;
757 -> 761 ;
762 [label="HighChol <= 0.0\nentropy = 1.525\nsamples = 345232\nvalue = [70581, 130807, 143844]\nclass = y[2]"] ;
0 -> 762 [labeldistance=2.5, labelangle=-45, headlabel="False"] ;
763 [label="GenHlth <= 3.0\nentropy = 1.55\nsamples = 87949\nvalue = [38192, 22826, 26931]\nclass = y[0]"] ;
762 -> 763 ;
764 [label="HighBP <= 1.0\nentropy = 0.934\nsamples = 11629\nvalue = [0, 7563, 4066]\nclass = y[1]"] ;
763 -> 764 ;
765 [label="HeartDiseaseorAttack <= 1.0\nentropy = 0.878\nsamples = 7530\nvalue = [0, 5293, 2237]\nclass = y[1]"] ;
764 -> 765 ;
766 [label="NoDocbcCost <= 0.0\nentropy = 0.871\nsamples = 7454\nvalue = [0, 5280, 2174]\nclass = y[1]"] ;
765 -> 766 ;
767 [label="Fruits <= 0.0\nentropy = 0.894\nsamples = 6288\nvalue = [0.0, 4333.0, 1955.0]\nclass = y[1]"] ;
766 -> 767 ;
768 [label="HvyAlcoholConsump <= 0.019\nentropy = 0.987\nsamples = 1078\nvalue = [0, 612, 466]\nclass = y[1]"] ;
767 -> 768 ;
769 [label="Sex <= 1.0\nentropy = 0.997\nsamples = 976\nvalue = [0, 517, 459]\nclass = y[1]"] ;
768 -> 769 ;
770 [label="Veggies <= 0.005\nentropy = 0.967\nsamples = 599\nvalue = [0, 363, 236]\nclass = y[1]"] ;
769 -> 770 ;
771 [label="entropy = 0.831\nsamples = 76\nvalue = [0, 20, 56]\nclass = y[2]"] ;
770 -> 771 ;
772 [label="entropy = 0.929\nsamples = 523\nvalue = [0, 343, 180]\nclass = y[1]"] ;
770 -> 772 ;
773 [label="Veggies <= 0.985\nentropy = 0.976\nsamples = 377\nvalue = [0.0, 154.0, 223.0]\nclass = y[2]"] ;
769 -> 773 ;
774 [label="entropy = 0.965\nsamples = 154\nvalue = [0, 94, 60]\nclass = y[1]"] ;
773 -> 774 ;
775 [label="entropy = 0.84\nsamples = 223\nvalue = [0, 60, 163]\nclass = y[2]"] ;
773 -> 775 ;
776 [label="MentHlth <= 2.5\nentropy = 0.361\nsamples = 102\nvalue = [0.0, 95.0, 7.0]\nclass = y[1]"] ;
768 -> 776 ;
777 [label="BMI <= 35.192\nentropy = 0.244\nsamples = 99\nvalue = [0, 95, 4]\nclass = y[1]"] ;
776 -> 777 ;
778 [label="entropy = 0.469\nsamples = 40\nvalue = [0, 36, 4]\nclass = y[1]"] ;
777 -> 778 ;
779 [label="entropy = 0.0\nsamples = 59\nvalue = [0, 59, 0]\nclass = y[1]"] ;
777 -> 779 ;
780 [label="entropy = 0.0\nsamples = 3\nvalue = [0, 0, 3]\nclass = y[2]"] ;
776 -> 780 ;
781 [label="Age <= 1.984\nentropy = 0.863\nsamples = 5210\nvalue = [0, 3721, 1489]\nclass = y[1]"] ;
767 -> 781 ;
782 [label="PhysHlth <= 1.947\nentropy = 0.229\nsamples = 27\nvalue = [0, 1, 26]\nclass = y[2]"] ;
781 -> 782 ;
783 [label="entropy = 0.0\nsamples = 19\nvalue = [0, 0, 19]\nclass = y[2]"] ;
782 -> 783 ;
784 [label="Veggies <= 0.362\nentropy = 0.544\nsamples = 8\nvalue = [0, 1, 7]\nclass = y[2]"] ;
782 -> 784 ;
785 [label="entropy = 0.0\nsamples = 1\nvalue = [0, 1, 0]\nclass = y[1]"] ;
784 -> 785 ;
786 [label="entropy = 0.0\nsamples = 7\nvalue = [0, 0, 7]\nclass = y[2]"] ;
784 -> 786 ;
787 [label="PhysHlth <= 0.994\nentropy = 0.859\nsamples = 5183\nvalue = [0, 3720, 1463]\nclass = y[1]"] ;
781 -> 787 ;
788 [label="PhysActivity <= 0.983\nentropy = 0.83\nsamples = 4101\nvalue = [0, 3025, 1076]\nclass = y[1]"] ;
787 -> 788 ;
789 [label="entropy = 0.746\nsamples = 1256\nvalue = [0, 989, 267]\nclass = y[1]"] ;
788 -> 789 ;
790 [label="entropy = 0.861\nsamples = 2845\nvalue = [0, 2036, 809]\nclass = y[1]"] ;
788 -> 790 ;
791 [label="MentHlth <= 0.004\nentropy = 0.941\nsamples = 1082\nvalue = [0, 695, 387]\nclass = y[1]"] ;
787 -> 791 ;
792 [label="entropy = 0.997\nsamples = 630\nvalue = [0, 334, 296]\nclass = y[1]"] ;
791 -> 792 ;
793 [label="entropy = 0.725\nsamples = 452\nvalue = [0, 361, 91]\nclass = y[1]"] ;
791 -> 793 ;
794 [label="Age <= 10.98\nentropy = 0.697\nsamples = 1166\nvalue = [0, 947, 219]\nclass = y[1]"] ;
766 -> 794 ;
795 [label="BMI <= 28.765\nentropy = 0.639\nsamples = 1098\nvalue = [0, 920, 178]\nclass = y[1]"] ;
794 -> 795 ;
796 [label="DiffWalk <= 0.932\nentropy = 0.42\nsamples = 694\nvalue = [0.0, 635.0, 59.0]\nclass = y[1]"] ;
795 -> 796 ;
797 [label="PhysHlth <= 4.987\nentropy = 0.396\nsamples = 689\nvalue = [0, 635, 54]\nclass = y[1]"] ;
796 -> 797 ;
798 [label="entropy = 0.314\nsamples = 636\nvalue = [0, 600, 36]\nclass = y[1]"] ;
797 -> 798 ;
799 [label="entropy = 0.924\nsamples = 53\nvalue = [0, 35, 18]\nclass = y[1]"] ;
797 -> 799 ;
800 [label="entropy = 0.0\nsamples = 5\nvalue = [0, 0, 5]\nclass = y[2]"] ;
796 -> 800 ;
801 [label="DiffWalk <= 0.994\nentropy = 0.875\nsamples = 404\nvalue = [0, 285, 119]\nclass = y[1]"] ;
795 -> 801 ;
802 [label="MentHlth <= 26.759\nentropy = 0.858\nsamples = 397\nvalue = [0, 285, 112]\nclass = y[1]"] ;
801 -> 802 ;
803 [label="entropy = 0.808\nsamples = 379\nvalue = [0, 285, 94]\nclass = y[1]"] ;
802 -> 803 ;
804 [label="entropy = 0.0\nsamples = 18\nvalue = [0, 0, 18]\nclass = y[2]"] ;
802 -> 804 ;
805 [label="entropy = 0.0\nsamples = 7\nvalue = [0, 0, 7]\nclass = y[2]"] ;
801 -> 805 ;
806 [label="BMI <= 26.953\nentropy = 0.969\nsamples = 68\nvalue = [0, 27, 41]\nclass = y[2]"] ;
794 -> 806 ;
807 [label="Veggies <= 0.938\nentropy = 0.868\nsamples = 38\nvalue = [0, 27, 11]\nclass = y[1]"] ;
806 -> 807 ;
808 [label="entropy = 0.0\nsamples = 27\nvalue = [0, 27, 0]\nclass = y[1]"] ;
807 -> 808 ;
809 [label="entropy = 0.0\nsamples = 11\nvalue = [0, 0, 11]\nclass = y[2]"] ;
807 -> 809 ;
810 [label="entropy = 0.0\nsamples = 30\nvalue = [0, 0, 30]\nclass = y[2]"] ;
806 -> 810 ;
811 [label="MentHlth <= 0.532\nentropy = 0.66\nsamples = 76\nvalue = [0, 13, 63]\nclass = y[2]"] ;
765 -> 811 ;
812 [label="entropy = 0.0\nsamples = 56\nvalue = [0, 0, 56]\nclass = y[2]"] ;
811 -> 812 ;
813 [label="BMI <= 28.965\nentropy = 0.934\nsamples = 20\nvalue = [0, 13, 7]\nclass = y[1]"] ;
811 -> 813 ;
814 [label="entropy = 0.0\nsamples = 7\nvalue = [0, 0, 7]\nclass = y[2]"] ;
813 -> 814 ;
815 [label="entropy = 0.0\nsamples = 13\nvalue = [0, 13, 0]\nclass = y[1]"] ;
813 -> 815 ;
816 [label="Income <= 7.987\nentropy = 0.992\nsamples = 4099\nvalue = [0, 2270, 1829]\nclass = y[1]"] ;
764 -> 816 ;
817 [label="PhysHlth <= 18.481\nentropy = 0.976\nsamples = 3349\nvalue = [0.0, 1976.0, 1373.0]\nclass = y[1]"] ;
816 -> 817 ;
818 [label="Education <= 3.97\nentropy = 0.97\nsamples = 3288\nvalue = [0.0, 1976.0, 1312.0]\nclass = y[1]"] ;
817 -> 818 ;
819 [label="BMI <= 24.012\nentropy = 0.777\nsamples = 384\nvalue = [0, 296, 88]\nclass = y[1]"] ;
818 -> 819 ;
820 [label="entropy = 0.0\nsamples = 18\nvalue = [0, 0, 18]\nclass = y[2]"] ;
819 -> 820 ;
821 [label="Veggies <= 0.005\nentropy = 0.704\nsamples = 366\nvalue = [0, 296, 70]\nclass = y[1]"] ;
819 -> 821 ;
822 [label="entropy = 0.0\nsamples = 23\nvalue = [0, 0, 23]\nclass = y[2]"] ;
821 -> 822 ;
823 [label="Education <= 3.001\nentropy = 0.576\nsamples = 343\nvalue = [0.0, 296.0, 47.0]\nclass = y[1]"] ;
821 -> 823 ;
824 [label="entropy = 0.968\nsamples = 76\nvalue = [0, 46, 30]\nclass = y[1]"] ;
823 -> 824 ;
825 [label="entropy = 0.342\nsamples = 267\nvalue = [0, 250, 17]\nclass = y[1]"] ;
823 -> 825 ;
826 [label="Education <= 4.039\nentropy = 0.982\nsamples = 2904\nvalue = [0.0, 1680.0, 1224.0]\nclass = y[1]"] ;
818 -> 826 ;
827 [label="Veggies <= 0.009\nentropy = 0.998\nsamples = 678\nvalue = [0, 321, 357]\nclass = y[2]"] ;
826 -> 827 ;
828 [label="entropy = 0.0\nsamples = 57\nvalue = [0, 0, 57]\nclass = y[2]"] ;
827 -> 828 ;
829 [label="PhysHlth <= 0.001\nentropy = 0.999\nsamples = 621\nvalue = [0, 321, 300]\nclass = y[1]"] ;
827 -> 829 ;
830 [label="entropy = 0.976\nsamples = 399\nvalue = [0, 163, 236]\nclass = y[2]"] ;
829 -> 830 ;
831 [label="entropy = 0.866\nsamples = 222\nvalue = [0, 158, 64]\nclass = y[1]"] ;
829 -> 831 ;
832 [label="BMI <= 23.229\nentropy = 0.964\nsamples = 2226\nvalue = [0, 1359, 867]\nclass = y[1]"] ;
826 -> 832 ;
833 [label="PhysActivity <= 0.882\nentropy = 0.492\nsamples = 93\nvalue = [0, 10, 83]\nclass = y[2]"] ;
832 -> 833 ;
834 [label="entropy = 0.954\nsamples = 16\nvalue = [0, 10, 6]\nclass = y[1]"] ;
833 -> 834 ;
835 [label="entropy = 0.0\nsamples = 77\nvalue = [0, 0, 77]\nclass = y[2]"] ;
833 -> 835 ;
836 [label="PhysActivity <= 0.993\nentropy = 0.949\nsamples = 2133\nvalue = [0, 1349, 784]\nclass = y[1]"] ;
832 -> 836 ;
837 [label="entropy = 0.868\nsamples = 880\nvalue = [0.0, 625.0, 255.0]\nclass = y[1]"] ;
836 -> 837 ;
838 [label="entropy = 0.982\nsamples = 1253\nvalue = [0, 724, 529]\nclass = y[1]"] ;
836 -> 838 ;
839 [label="entropy = 0.0\nsamples = 61\nvalue = [0, 0, 61]\nclass = y[2]"] ;
817 -> 839 ;
840 [label="HvyAlcoholConsump <= 0.004\nentropy = 0.966\nsamples = 750\nvalue = [0, 294, 456]\nclass = y[2]"] ;
816 -> 840 ;
841 [label="Sex <= 1.0\nentropy = 0.975\nsamples = 721\nvalue = [0.0, 294.0, 427.0]\nclass = y[2]"] ;
840 -> 841 ;
842 [label="Education <= 5.002\nentropy = 0.996\nsamples = 357\nvalue = [0, 191, 166]\nclass = y[1]"] ;
841 -> 842 ;
843 [label="PhysHlth <= 0.034\nentropy = 0.737\nsamples = 77\nvalue = [0, 16, 61]\nclass = y[2]"] ;
842 -> 843 ;
844 [label="Education <= 3.829\nentropy = 0.305\nsamples = 55\nvalue = [0, 3, 52]\nclass = y[2]"] ;
843 -> 844 ;
845 [label="entropy = 0.0\nsamples = 3\nvalue = [0, 3, 0]\nclass = y[1]"] ;
844 -> 845 ;
846 [label="entropy = 0.0\nsamples = 52\nvalue = [0, 0, 52]\nclass = y[2]"] ;
844 -> 846 ;
847 [label="MentHlth <= 0.003\nentropy = 0.976\nsamples = 22\nvalue = [0, 13, 9]\nclass = y[1]"] ;
843 -> 847 ;
848 [label="entropy = 0.696\nsamples = 16\nvalue = [0, 13, 3]\nclass = y[1]"] ;
847 -> 848 ;
849 [label="entropy = 0.0\nsamples = 6\nvalue = [0, 0, 6]\nclass = y[2]"] ;
847 -> 849 ;
850 [label="MentHlth <= 4.5\nentropy = 0.954\nsamples = 280\nvalue = [0, 175, 105]\nclass = y[1]"] ;
842 -> 850 ;
851 [label="PhysHlth <= 3.9\nentropy = 0.926\nsamples = 264\nvalue = [0, 174, 90]\nclass = y[1]"] ;
850 -> 851 ;
852 [label="entropy = 0.864\nsamples = 241\nvalue = [0, 172, 69]\nclass = y[1]"] ;
851 -> 852 ;
853 [label="entropy = 0.426\nsamples = 23\nvalue = [0, 2, 21]\nclass = y[2]"] ;
851 -> 853 ;
854 [label="Veggies <= 0.995\nentropy = 0.337\nsamples = 16\nvalue = [0, 1, 15]\nclass = y[2]"] ;
850 -> 854 ;
855 [label="entropy = 0.0\nsamples = 1\nvalue = [0, 1, 0]\nclass = y[1]"] ;
854 -> 855 ;
856 [label="entropy = 0.0\nsamples = 15\nvalue = [0, 0, 15]\nclass = y[2]"] ;
854 -> 856 ;
857 [label="BMI <= 29.073\nentropy = 0.859\nsamples = 364\nvalue = [0, 103, 261]\nclass = y[2]"] ;
841 -> 857 ;
858 [label="entropy = 0.0\nsamples = 90\nvalue = [0, 0, 90]\nclass = y[2]"] ;
857 -> 858 ;
859 [label="PhysHlth <= 0.908\nentropy = 0.955\nsamples = 274\nvalue = [0, 103, 171]\nclass = y[2]"] ;
857 -> 859 ;
860 [label="BMI <= 38.998\nentropy = 0.99\nsamples = 233\nvalue = [0, 103, 130]\nclass = y[2]"] ;
859 -> 860 ;
861 [label="entropy = 0.95\nsamples = 187\nvalue = [0, 69, 118]\nclass = y[2]"] ;
860 -> 861 ;
862 [label="entropy = 0.828\nsamples = 46\nvalue = [0, 34, 12]\nclass = y[1]"] ;
860 -> 862 ;
863 [label="entropy = 0.0\nsamples = 41\nvalue = [0, 0, 41]\nclass = y[2]"] ;
859 -> 863 ;
864 [label="entropy = 0.0\nsamples = 29\nvalue = [0, 0, 29]\nclass = y[2]"] ;
840 -> 864 ;
865 [label="GenHlth <= 3.0\nentropy = 1.485\nsamples = 76320\nvalue = [38192, 15263, 22865]\nclass = y[0]"] ;
763 -> 865 ;
866 [label="Age <= 5.0\nentropy = 1.37\nsamples = 46102\nvalue = [27337.0, 7519.0, 11246.0]\nclass = y[0]"] ;
865 -> 866 ;
867 [label="BMI <= 30.007\nentropy = 0.85\nsamples = 10394\nvalue = [8555, 983, 856]\nclass = y[0]"] ;
866 -> 867 ;
868 [label="Smoker <= 0.997\nentropy = 0.56\nsamples = 6034\nvalue = [5443, 287, 304]\nclass = y[0]"] ;
867 -> 868 ;
869 [label="Smoker <= 0.0\nentropy = 0.705\nsamples = 3789\nvalue = [3278.0, 266.0, 245.0]\nclass = y[0]"] ;
868 -> 869 ;
870 [label="Income <= 7.013\nentropy = 0.515\nsamples = 3594\nvalue = [3278, 128, 188]\nclass = y[0]"] ;
869 -> 870 ;
871 [label="HighBP <= 0.055\nentropy = 0.375\nsamples = 2265\nvalue = [2133, 47, 85]\nclass = y[0]"] ;
870 -> 871 ;
872 [label="entropy = 0.294\nsamples = 2011\nvalue = [1925, 29, 57]\nclass = y[0]"] ;
871 -> 872 ;
873 [label="entropy = 0.857\nsamples = 254\nvalue = [208, 18, 28]\nclass = y[0]"] ;
871 -> 873 ;
874 [label="BMI <= 25.903\nentropy = 0.717\nsamples = 1329\nvalue = [1145, 81, 103]\nclass = y[0]"] ;
870 -> 874 ;
875 [label="entropy = 0.695\nsamples = 648\nvalue = [557, 70, 21]\nclass = y[0]"] ;
874 -> 875 ;
876 [label="entropy = 0.647\nsamples = 681\nvalue = [588, 11, 82]\nclass = y[0]"] ;
874 -> 876 ;
877 [label="Sex <= 0.995\nentropy = 0.872\nsamples = 195\nvalue = [0, 138, 57]\nclass = y[1]"] ;
869 -> 877 ;
878 [label="MentHlth <= 12.5\nentropy = 0.761\nsamples = 177\nvalue = [0, 138, 39]\nclass = y[1]"] ;
877 -> 878 ;
879 [label="entropy = 0.895\nsamples = 125\nvalue = [0, 86, 39]\nclass = y[1]"] ;
878 -> 879 ;
880 [label="entropy = 0.0\nsamples = 52\nvalue = [0, 52, 0]\nclass = y[1]"] ;
878 -> 880 ;
881 [label="entropy = 0.0\nsamples = 18\nvalue = [0, 0, 18]\nclass = y[2]"] ;
877 -> 881 ;
882 [label="BMI <= 17.661\nentropy = 0.252\nsamples = 2245\nvalue = [2165, 21, 59]\nclass = y[0]"] ;
868 -> 882 ;
883 [label="BMI <= 17.013\nentropy = 0.863\nsamples = 28\nvalue = [20, 8, 0]\nclass = y[0]"] ;
882 -> 883 ;
884 [label="NoDocbcCost <= 0.5\nentropy = 0.276\nsamples = 21\nvalue = [20, 1, 0]\nclass = y[0]"] ;
883 -> 884 ;
885 [label="entropy = 0.0\nsamples = 14\nvalue = [14, 0, 0]\nclass = y[0]"] ;
884 -> 885 ;
886 [label="entropy = 0.592\nsamples = 7\nvalue = [6, 1, 0]\nclass = y[0]"] ;
884 -> 886 ;
887 [label="entropy = 0.0\nsamples = 7\nvalue = [0, 7, 0]\nclass = y[1]"] ;
883 -> 887 ;
888 [label="HeartDiseaseorAttack <= 0.078\nentropy = 0.229\nsamples = 2217\nvalue = [2145, 13, 59]\nclass = y[0]"] ;
882 -> 888 ;
889 [label="Age <= 3.032\nentropy = 0.202\nsamples = 2172\nvalue = [2112, 12, 48]\nclass = y[0]"] ;
888 -> 889 ;
890 [label="entropy = 0.112\nsamples = 1009\nvalue = [996, 5, 8]\nclass = y[0]"] ;
889 -> 890 ;
891 [label="entropy = 0.269\nsamples = 1163\nvalue = [1116, 7, 40]\nclass = y[0]"] ;
889 -> 891 ;
892 [label="PhysActivity <= 0.922\nentropy = 0.947\nsamples = 45\nvalue = [33, 1, 11]\nclass = y[0]"] ;
888 -> 892 ;
893 [label="entropy = 1.219\nsamples = 20\nvalue = [11, 1, 8]\nclass = y[0]"] ;
892 -> 893 ;
894 [label="entropy = 0.529\nsamples = 25\nvalue = [22, 0, 3]\nclass = y[0]"] ;
892 -> 894 ;
895 [label="HighBP <= 0.001\nentropy = 1.147\nsamples = 4360\nvalue = [3112, 696, 552]\nclass = y[0]"] ;
867 -> 895 ;
896 [label="PhysActivity <= 0.998\nentropy = 0.839\nsamples = 2747\nvalue = [2269, 267, 211]\nclass = y[0]"] ;
895 -> 896 ;
897 [label="PhysActivity <= 0.001\nentropy = 1.195\nsamples = 822\nvalue = [546.0, 206.0, 70.0]\nclass = y[0]"] ;
896 -> 897 ;
898 [label="Smoker <= 0.989\nentropy = 0.794\nsamples = 653\nvalue = [546, 71, 36]\nclass = y[0]"] ;
897 -> 898 ;
899 [label="entropy = 0.898\nsamples = 412\nvalue = [326, 67, 19]\nclass = y[0]"] ;
898 -> 899 ;
900 [label="entropy = 0.488\nsamples = 241\nvalue = [220, 4, 17]\nclass = y[0]"] ;
898 -> 900 ;
901 [label="Sex <= 0.023\nentropy = 0.724\nsamples = 169\nvalue = [0, 135, 34]\nclass = y[1]"] ;
897 -> 901 ;
902 [label="entropy = 0.771\nsamples = 31\nvalue = [0, 7, 24]\nclass = y[2]"] ;
901 -> 902 ;
903 [label="entropy = 0.375\nsamples = 138\nvalue = [0, 128, 10]\nclass = y[1]"] ;
901 -> 903 ;
904 [label="Age <= 3.001\nentropy = 0.577\nsamples = 1925\nvalue = [1723, 61, 141]\nclass = y[0]"] ;
896 -> 904 ;
905 [label="Veggies <= 0.879\nentropy = 0.291\nsamples = 923\nvalue = [884, 13, 26]\nclass = y[0]"] ;
904 -> 905 ;
906 [label="entropy = 0.589\nsamples = 200\nvalue = [179, 10, 11]\nclass = y[0]"] ;
905 -> 906 ;
907 [label="entropy = 0.184\nsamples = 723\nvalue = [705, 3, 15]\nclass = y[0]"] ;
905 -> 907 ;
908 [label="Income <= 6.989\nentropy = 0.783\nsamples = 1002\nvalue = [839, 48, 115]\nclass = y[0]"] ;
904 -> 908 ;
909 [label="entropy = 1.036\nsamples = 459\nvalue = [346, 40, 73]\nclass = y[0]"] ;
908 -> 909 ;
910 [label="entropy = 0.502\nsamples = 543\nvalue = [493, 8, 42]\nclass = y[0]"] ;
908 -> 910 ;
911 [label="HighBP <= 0.998\nentropy = 1.471\nsamples = 1613\nvalue = [843, 429, 341]\nclass = y[0]"] ;
895 -> 911 ;
912 [label="Veggies <= 0.873\nentropy = 0.908\nsamples = 383\nvalue = [0, 259, 124]\nclass = y[1]"] ;
911 -> 912 ;
913 [label="MentHlth <= 0.012\nentropy = 0.674\nsamples = 141\nvalue = [0, 116, 25]\nclass = y[1]"] ;
912 -> 913 ;
914 [label="entropy = 0.949\nsamples = 57\nvalue = [0, 36, 21]\nclass = y[1]"] ;
913 -> 914 ;
915 [label="entropy = 0.276\nsamples = 84\nvalue = [0, 80, 4]\nclass = y[1]"] ;
913 -> 915 ;
916 [label="MentHlth <= 6.92\nentropy = 0.976\nsamples = 242\nvalue = [0, 143, 99]\nclass = y[1]"] ;
912 -> 916 ;
917 [label="entropy = 0.944\nsamples = 224\nvalue = [0, 143, 81]\nclass = y[1]"] ;
916 -> 917 ;
918 [label="entropy = 0.0\nsamples = 18\nvalue = [0, 0, 18]\nclass = y[2]"] ;
916 -> 918 ;
919 [label="BMI <= 34.156\nentropy = 1.21\nsamples = 1230\nvalue = [843.0, 170.0, 217.0]\nclass = y[0]"] ;
911 -> 919 ;
920 [label="Stroke <= 0.03\nentropy = 0.652\nsamples = 407\nvalue = [346.0, 3.0, 58.0]\nclass = y[0]"] ;
919 -> 920 ;
921 [label="entropy = 0.63\nsamples = 397\nvalue = [341.0, 3.0, 53.0]\nclass = y[0]"] ;
920 -> 921 ;
922 [label="entropy = 1.0\nsamples = 10\nvalue = [5, 0, 5]\nclass = y[0]"] ;
920 -> 922 ;
923 [label="Sex <= 0.987\nentropy = 1.365\nsamples = 823\nvalue = [497, 167, 159]\nclass = y[0]"] ;
919 -> 923 ;
924 [label="entropy = 1.484\nsamples = 522\nvalue = [260, 160, 102]\nclass = y[0]"] ;
923 -> 924 ;
925 [label="entropy = 0.852\nsamples = 301\nvalue = [237.0, 7.0, 57.0]\nclass = y[0]"] ;
923 -> 925 ;
926 [label="HighBP <= 0.0\nentropy = 1.454\nsamples = 35708\nvalue = [18782, 6536, 10390]\nclass = y[0]"] ;
866 -> 926 ;
927 [label="Sex <= 0.0\nentropy = 1.158\nsamples = 14975\nvalue = [10558, 1691, 2726]\nclass = y[0]"] ;
926 -> 927 ;
928 [label="BMI <= 23.005\nentropy = 0.909\nsamples = 7527\nvalue = [6027, 544, 956]\nclass = y[0]"] ;
927 -> 928 ;
929 [label="Smoker <= 0.992\nentropy = 0.549\nsamples = 1945\nvalue = [1754, 56, 135]\nclass = y[0]"] ;
928 -> 929 ;
930 [label="Smoker <= 0.015\nentropy = 0.686\nsamples = 1081\nvalue = [937, 45, 99]\nclass = y[0]"] ;
929 -> 930 ;
931 [label="entropy = 0.547\nsamples = 1036\nvalue = [937, 38, 61]\nclass = y[0]"] ;
930 -> 931 ;
932 [label="entropy = 0.624\nsamples = 45\nvalue = [0, 7, 38]\nclass = y[2]"] ;
930 -> 932 ;
933 [label="PhysHlth <= 0.123\nentropy = 0.347\nsamples = 864\nvalue = [817, 11, 36]\nclass = y[0]"] ;
929 -> 933 ;
934 [label="entropy = 0.119\nsamples = 497\nvalue = [490, 2, 5]\nclass = y[0]"] ;
933 -> 934 ;
935 [label="entropy = 0.581\nsamples = 367\nvalue = [327, 9, 31]\nclass = y[0]"] ;
933 -> 935 ;
936 [label="Veggies <= 0.007\nentropy = 1.009\nsamples = 5582\nvalue = [4273.0, 488.0, 821.0]\nclass = y[0]"] ;
928 -> 936 ;
937 [label="AnyHealthcare <= 0.5\nentropy = 0.67\nsamples = 943\nvalue = [805, 14, 124]\nclass = y[0]"] ;
936 -> 937 ;
938 [label="entropy = 0.285\nsamples = 73\nvalue = [70, 2, 1]\nclass = y[0]"] ;
937 -> 938 ;
939 [label="entropy = 0.69\nsamples = 870\nvalue = [735, 12, 123]\nclass = y[0]"] ;
937 -> 939 ;
940 [label="Veggies <= 0.994\nentropy = 1.061\nsamples = 4639\nvalue = [3468.0, 474.0, 697.0]\nclass = y[0]"] ;
936 -> 940 ;
941 [label="entropy = 0.926\nsamples = 217\nvalue = [0, 143, 74]\nclass = y[1]"] ;
940 -> 941 ;
942 [label="entropy = 0.953\nsamples = 4422\nvalue = [3468, 331, 623]\nclass = y[0]"] ;
940 -> 942 ;
943 [label="Sex <= 1.0\nentropy = 1.345\nsamples = 7448\nvalue = [4531, 1147, 1770]\nclass = y[0]"] ;
927 -> 943 ;
944 [label="Income <= 2.884\nentropy = 0.981\nsamples = 896\nvalue = [0, 520, 376]\nclass = y[1]"] ;
943 -> 944 ;
945 [label="entropy = 0.0\nsamples = 32\nvalue = [0, 0, 32]\nclass = y[2]"] ;
944 -> 945 ;
946 [label="Fruits <= 0.004\nentropy = 0.97\nsamples = 864\nvalue = [0, 520, 344]\nclass = y[1]"] ;
944 -> 946 ;
947 [label="entropy = 0.908\nsamples = 136\nvalue = [0, 44, 92]\nclass = y[2]"] ;
946 -> 947 ;
948 [label="entropy = 0.931\nsamples = 728\nvalue = [0, 476, 252]\nclass = y[1]"] ;
946 -> 948 ;
949 [label="Age <= 5.998\nentropy = 1.167\nsamples = 6552\nvalue = [4531, 627, 1394]\nclass = y[0]"] ;
943 -> 949 ;
950 [label="PhysHlth <= 1.932\nentropy = 0.989\nsamples = 98\nvalue = [0.0, 55.0, 43.0]\nclass = y[1]"] ;
949 -> 950 ;
951 [label="entropy = 0.959\nsamples = 89\nvalue = [0.0, 55.0, 34.0]\nclass = y[1]"] ;
950 -> 951 ;
952 [label="entropy = 0.0\nsamples = 9\nvalue = [0, 0, 9]\nclass = y[2]"] ;
